function [Y,Xf,Af] = nnmove_00(X,~,~)
%NNMOVE_00 neural network simulation function.
%
% Auto-generated by MATLAB, 26-Jun-2022 21:18:54.
% 
% [Y] = nnmove_00(X,~,~) takes these arguments:
% 
%   X = 1xTS cell, 1 inputs over TS timesteps
%   Each X{1,ts} = 12xQ matrix, input #1 at timestep ts.
% 
% and returns:
%   Y = 1xTS cell of 1 outputs over TS timesteps.
%   Each Y{1,ts} = 4xQ matrix, output #1 at timestep ts.
% 
% where Q is number of samples (or series) and TS is the number of timesteps.

%#ok<*RPMT0>

% ===== NEURAL NETWORK CONSTANTS =====

% Input 1
x1_step1.xoffset = [-0.591993057816088;-1.24063456062909;-0.498343469489469;-1.39482063568896;-0.444470319361263;-0.323105694444565;-0.395815307159271;-1.21741074482007;-0.492809137718783;-1.49689082115881;-0.670619673906455;-0.24723758475537];
x1_step1.gain = [1.78237772035698;0.897460667164977;1.53052509622973;0.846308525579566;2.58566648391193;3.77276326122836;2.58664192768644;0.623702674186829;2.14628437839863;0.602999004044786;1.52318639184127;3.95596713682926];
x1_step1.ymin = -1;

% Layer 1
b1 = [-1.796996378957522511;-1.6078388653830462118;1.4186813518085703567;-1.2295238382340942795;-1.0403663246596184244;0.85120881108514223623;0.66205129751066615906;0.4728937839361900819;0.28373627036171406024;-0.094578756787238024706;-0.094578756787238024706;-0.28373627036171406024;-0.4728937839361900819;0.66205129751066615906;-0.85120881108514223623;-1.0403663246596184244;1.2295238382340942795;1.4186813518085703567;1.6078388653830462118;1.796996378957522511];
IW1_1 = [0.71735238333756656814 0.091622119356186401684 -0.31721001852316066394 -0.90296355114271142916 0.5456242536594474446 0.92231938644996158683 0.29299263552153687051 0.25401182519953552363 0.11315929307610164689 -0.13704962778733245643 -0.47248161192549298359 -0.48648688831207115291;0.16853897332226627781 -0.85684197674176354464 0.29905533594011290965 0.4308663367127923971 0.18120847723065189316 0.52999746134865111102 -0.26345369128189477514 -0.61880572586140303315 0.54921457641755777601 -0.37196930879501072242 -0.19295977770162783815 -0.97377566450072994275;-0.66047970765563523976 -0.35044309940833040518 0.56841165164983420421 0.16099183145484677326 -0.10507743599931296252 -0.63361486231528529878 -0.14602173613382515849 0.16626978139917672483 0.48225893953106874212 -0.46328594788795185444 1.1717015510225330388 -0.19892931519116571759;0.03375987533025323617 0.3318746659184521608 0.73146899065691728392 0.070646990359882422261 0.021491754562942652629 -0.7934873420528213428 0.78563486131834425752 0.33303349851406238713 -0.62791098944805545656 0.57495542106701735818 -0.19520269578442897562 0.67580325398531526648;0.71107045180414030217 -0.77765801993078664811 -0.11784690940496771183 0.65042922643345568723 -0.13253201274847353774 -0.5264494956076603005 -0.61043972661084444642 0.1281278206390426555 0.40216142724998554803 0.62520553170261805587 -0.65975735538738311536 0.10106427379394997135;-0.36011882139228512667 0.3794952980130751885 -0.20076060565526562818 -0.64405825684721307312 -0.62662636829348161704 -0.040395038794217991152 0.8003572903601051669 0.82737931556722243975 -0.11347993563252710414 -0.20170360273534948536 0.035734818117375159729 -0.85212568041394187723;-0.31267043131922583887 -0.14577575814660664877 0.29706235800707075922 -0.61409568344754650315 -0.80942300032847369629 -0.011676717794811122819 -0.081746296108241342515 -0.59641282720692900821 0.74247458155848000683 -0.69001350418072870951 0.67024207552169212665 0.38796755809323518749;-0.62827617651321709946 0.10314900731680703982 0.5275000390929206473 -0.1494604284295251162 -0.91059676218768925704 -0.26671223512416125656 -0.66165914991631458175 -0.50858299654130867395 -0.85893165540207649933 -0.14411036693769432859 -0.36480568766125676117 -0.18666722374683436536;-0.20485942098443796211 -0.68512793514380909699 0.070369712691027444529 -0.34305767987484742099 -0.52098511782239831369 0.81027450586246463349 -0.22441374651575282662 0.7236246911796940795 -0.34368672030600372347 -0.33753994005814047519 0.80132857507169974465 -0.4680193358097536338;0.51350898207675788054 0.81674540026066966281 0.041697829587516929695 0.61179500396744879165 0.51731787565277376206 -0.67731934354385125996 0.389657610450941716 -0.78575638150164894835 -0.013112821768021526783 -0.40605635011560331504 0.43145574794115898465 0.27489350035472426281;-0.74374226669937471002 0.1300634520667351135 0.0031358348635608167092 0.5570399886629284758 0.77593940890838863922 -0.15554720613396977313 -0.76356696575417404294 -0.72088460982583490999 -0.0060756707659245737935 -0.25996730983647209356 -0.042249684102489276638 0.74191142290999090303;-0.62469373036867725801 0.045031152978434588197 0.69973995685215584217 -0.68145297003995275453 0.66496676305555413311 0.30873387972476312724 -0.24282975168090542573 -0.4283332734457089841 0.32386235940574908954 -0.67851250836295007307 0.67925350203149525985 0.27627397475461362708;-0.1678360438077116934 -0.77835818694787262118 -0.12518980350229100273 -0.719254925780448362 0.095296573295197847808 -0.63978804343665951482 -0.77720677043772423698 -0.51987850921578027119 0.13391310488359650654 0.45221925147152897129 0.71568064498080929958 -0.18659443617135576532;0.46994976718962677698 0.35938821525888531294 -0.2902636147401083111 0.60582686528119866765 0.59110942228639629104 -0.65429617153070362967 0.71028703981870300321 -0.57996499863837924771 0.62051293332883250553 -0.25344705607601247799 -0.59149517699722564679 -0.1019067880516601049;-0.33318859601723888053 -0.10149933201890004586 -0.3933221873368931143 0.53607220879044936712 -0.44970202233487055477 0.5562285609911334916 0.63239085509652703809 -0.14188452173514715104 0.50423002458951471372 -0.99741737558068443992 0.65385552446664918502 0.23982401303007555571;-0.7379910876598160252 -0.29390506414547501457 0.70021151119274072094 -0.11659213061294186609 -0.55249611143918397893 -0.74320377265991133253 -0.40140957297450219343 -0.24107061009277080954 0.39726991210270223842 -0.19204872030695377405 0.7039993508232399444 -0.57194877680828981603;0.16091091934817383646 -0.68706376304789296139 -0.27275439494489750469 0.72242807615009041466 -0.43752356204250408833 0.42835335635506716079 0.57203609881276906712 0.53427978041533563669 0.75509816183205669127 0.4892948984675408175 0.16922130953203173842 0.5560013774613441484;0.30337719433544979575 -0.69683149828100143797 0.39054172850260338024 0.42762139719955244432 0.37049537748223865252 0.65629306497731310088 -0.10643258218599108145 -0.50106435193229748037 0.68623616239362716929 0.71512928683258147888 0.66785259708768685005 -0.23971519726968601449;0.7052541948557116136 0.08701713112230660685 0.7131180743588427795 -0.68473221291674968292 -0.41211570860858087739 0.17576132973264319004 -0.72970992856064065268 -0.18416806741876984299 0.23806302451894362227 -0.66404855164249576571 -0.062397615476442576388 -0.69151365129413855382;0.39472342133383464535 0.39397388422060830582 0.12275500748098566728 0.42442982277165397509 0.34082874180355487992 -0.34285382194179286897 -0.86769262779877120995 0.34546840971472347892 0.19282500589496698318 0.72121257831641627511 -0.66420972352411644657 -0.7864534335347624916];

% Layer 2
b2 = [1.5708258360227485007;1.2217534280176931549;0.87268102001263814227;-0.52360861200758279654;0.1745362040025275896;-0.1745362040025275896;0.52360861200758279654;-0.87268102001263814227;-1.2217534280176931549;-1.5708258360227485007];
LW2_1 = [-0.50685712761850987285 0.50804750605953996612 0.39631892607800739414 -0.20459579504192570987 -0.25187223705531996965 0.21889593584892724776 0.44282488962007748867 -0.48611145947310918647 0.4974834235274426808 -0.16478557410937466621 -0.29498734609863186407 -0.22908266243946714957 -0.27261224435444597614 0.23293448501898758596 0.343346100726409309 0.37038971548001309309 -0.13644697470214414703 0.23944819320239504878 0.42446743334788950008 -0.3948147880033407997;-0.061277383378767050215 0.035692183140504846195 -0.52553300660936375088 0.19412305187328862677 0.55249478180268607463 -0.3188412382570753878 0.2505556943492556754 -0.19963572527044259886 0.46193549320031795924 0.031672033051294942729 -0.60318670966631726671 0.59575796247204693135 -0.21629348974675124961 -0.15935102036715687035 -0.070284981295193074691 0.052970103815963676119 -0.20248330193259583831 0.52179496641313194427 0.3081069330451848276 0.46667268669992156838;-0.10008260815625324991 -0.47607977433634807163 0.49182961321467733029 -0.52341197415777318547 -0.49973131781922724981 0.57174836646863325118 -0.13849484812776974296 -0.26642220145303968648 -0.44870805185260331793 0.24101146801456982405 -0.45615114696432551566 0.22188177442933726402 0.25488523087959713553 0.12153990661886775182 0.2186941334030803874 -0.24265538486672955099 0.48051661430591757762 0.11393073519852996156 -0.31702033355850522955 0.024966423215533085911;0.29203968953857406543 -0.54118919886645522332 -0.46942815337034088374 -0.013889554773869888446 0.049053210126634931576 0.51541342477126272925 0.15079435110333910819 0.34704915535866037724 0.52062447683516610564 0.53394926077569104805 -0.33111789761937959753 0.52737548258048583261 0.029268050359705099356 0.43786038588288794804 0.10604152522783405477 0.06126068309364725295 0.52220197964801529089 -0.020366432335650549307 -0.16987773094071884072 0.063766155551407563418;-0.13758771562922167409 0.01335072762553780705 -0.33657312817028739449 -0.10218127799123111199 0.58516998875208647846 -0.069092321721002977752 -0.071681014243402216279 0.50981734071869788671 -0.12999060844019844074 -0.51947985017827813525 0.020577852758384324733 -0.49724254180268129266 0.20660268991411945283 -0.55809309723938382852 -0.43901411641726018065 -0.1730563117312495236 0.39148592793212899643 -0.28958341388336289457 0.44842482277950301839 -0.4036627510368193672;-0.0068368357357659762311 -0.014620386171116750082 0.28761196551273049415 -0.44899493226145881231 0.34165884293825432572 0.24441398959062593521 -0.49867520776870277732 0.4562278784012007149 -0.18994548786544837582 0.34242915568935050619 0.44427736268011758236 0.44602671923012865429 0.16855481854793624708 -0.31687335976137870341 -0.053602266707167001147 0.42931282003598908448 0.1684041333712847921 -0.521745575920669169 0.39637222299966973216 0.4756844532416659721;0.09373323447434893374 -0.35367927348677002941 -0.071218238189114449477 0.26282464456432852451 0.14277299369996221401 -0.52802436000512376069 0.48394761905094912935 -0.31131635341230473601 -0.082396541189704117225 0.41208563856392660396 -0.042710368482428706649 0.061140087457361672052 -0.42443398019739725369 -0.34219877261924475098 0.55099431255040276501 0.67333782560533628203 -0.45978623277195901364 0.067099644271111716365 -0.32460120565763111999 0.26738082985710232009;-0.12232817183150081208 -0.58445144135519377926 0.46215653465709155556 -0.29544880761532660296 0.096306299595997499341 0.06431159805178655875 -0.37618033385583582451 0.038199999213050478408 0.2357569837136768709 0.26107442033465372289 -0.031214909606432247186 0.45255052312007454374 0.67649074425481248163 -0.23091527737479172755 -0.30009089311707204395 0.0016332161723802704825 -0.14412061363212794185 -0.64936604851612145239 0.01680202636707998215 0.52954700085373707097;-0.21005323154282343201 0.48887142855029647182 -0.49707242056066497371 0.012677541518510585666 0.44841128475695407607 -0.37450934360105908594 -0.3794400058027752598 0.00055778509481847131195 -0.23131659233914630969 -0.52289014515732690214 0.36414971854911104554 0.37812547893387138398 -0.2725725241171259583 -0.33348418036296201272 -0.026694660489044220314 0.25420177932583132296 0.45788984897963896925 0.30839690046321510675 0.52940397620872414741 -0.11595334420605260539;-0.42583188836653168563 -0.47792508055245863652 -0.16186038710710690114 0.51368193624788194285 -0.21366025729107260278 -0.51246260385630515444 0.45000594041371538845 -0.39294680093053740988 -0.47282957518024198995 -0.064421225132071796571 0.35278083509213642444 -0.55596041931824236038 -0.15443299749761560391 0.13187833150772082513 -0.2776389263905836291 0.28195927636608464351 0.15530419261305208889 -0.26340111198301852102 -0.086095727078601580473 -0.37748838259806172246];

% Layer 3
b3 = [1.7624955765118339723;-1.370829892842537312;0.97916420917324109574;-0.58749852550394465744;0.19583284183464821915;-0.19583284183464821915;-0.58749852550394465744;0.97916420917324109574;-1.370829892842537312;1.7624955765118339723];
LW3_2 = [-0.77768727673702531256 -0.4166054933878919897 0.69175539476568548292 -0.41507556859492938939 0.20248803741080753649 0.35286721240952206857 -0.78962423563870010046 -0.73131415903767293951 -0.50114068512061460403 -0.31974094511657763507;0.31486332528457933178 0.798877091665716077 -1.0331429111687266964 -0.018116359265224129399 -0.7189485558662513931 0.079963218254131468443 -0.24865242274034249359 -0.611004134061451043 0.13798847239205394577 -0.56908577447638186708;-0.094277537453123491651 -0.77742007634231291568 -0.53637184107289281876 0.20168181313193728199 -0.44715804945503340173 -0.91133204255605571031 -0.54951012422268108448 -0.55529407327695445851 -0.64319375215008567359 0.33205816084669875776;0.25030909782615523573 0.34652845884086314054 -0.52458021904281160186 -0.015739036139304468653 -0.16001986328976286478 -0.81697164537759614511 -0.38329266737535022669 0.5180088273750644845 -0.88311401866390426552 0.87180049693255745602;-0.83971543482091171029 -0.36292112003742144077 0.36134746265358702599 0.64496764409196571943 0.85002095501349328455 0.33291252749694733026 -0.13499408064100551496 -0.21808594170988776506 0.48775797560090722316 0.76546884862678499228;-0.42646500461280034688 -0.94712203930953742237 -0.55396852433944587801 0.80042496986928457492 0.26158264901331779173 -0.27100558834692561883 -0.30621141440293209168 0.10271674630544344597 0.033207756720468446787 0.91248474770855558802;-0.059789831061358274245 0.86115020021252663973 -0.8210422348011704452 0.15798023198091956654 0.31046477743172923303 0.26459252177232778225 -0.67677677961570426035 0.61216623800624381246 -0.61208525574798600122 0.53698026750146476971;0.2304081895356790699 -0.93679464048333294102 -0.58233519136428846252 0.4075563839806246591 -0.17964846928295510886 -0.59164509707210666267 0.18183759547161132408 -0.74967316159779517903 0.21319886669167045778 0.80477079547223606681;-0.25708636101077964042 0.67586209374948980066 0.32957605760406988304 0.21832718875609716247 0.18506102964391124566 -0.18574281734996592186 0.96981405814520160735 0.60508775047753349252 -0.50273460255219581949 -0.89390155984609576123;0.17073149981951030174 -0.83406120814893003335 0.48790947316281141344 -0.73284816871380720205 -0.63675029364913149355 0.01269753018499014674 0.55704007573656844077 0.54674661593050755126 -0.45739404098957636702 -0.61839650741997631567];

% Layer 4
b4 = [1.8889959867429886309;1.690154303927936974;1.4913126211128857612;-1.2924709382978341043;1.0936292554827828916;-0.89478757266773145673;-0.6959458898526800219;-0.49710420703762858707;-0.29826252422257715224;0.099420841407525717415;0.099420841407525717415;-0.29826252422257715224;0.49710420703762858707;-0.6959458898526800219;0.89478757266773145673;1.0936292554827828916;1.2924709382978341043;-1.4913126211128857612;-1.690154303927936974;-1.8889959867429886309];
LW4_3 = [-0.7037490820509860745 -0.67354432306890210658 -0.91710062777103218412 -0.37513224101050224313 -0.79460713677099281682 0.60001212437827189383 0.18416206988593428195 0.11461773845259179416 0.76756907165749410638 -0.09976536310491634918;-0.015603260567916549598 0.5569798840962384423 0.54360368247841506228 -0.83275737532917715189 -0.57529305926676421734 0.74796205583587127563 -0.27632468603770210525 0.22864683057343285211 -0.78609983283771844853 0.79488928895182553447;-0.72584365965139785448 0.9973001620341370721 0.16340973211028517187 0.72749931474520423968 0.62262797668299563192 0.13117664237005413619 -0.527080461096849473 0.38964444167342998648 0.58239844515250949186 -0.56319956659571435154;0.8506993220209843054 0.38078866011726925089 0.79787104971414746224 -0.49311466568374884289 -0.38225272309385410763 0.21331694673741907753 0.015104499091680229778 0.58888413505336167919 -0.62158607995853221162 0.94596671347319916112;-0.92032946710051743988 -0.39907242784486790521 0.26683382496298169162 -0.29871988365059848336 -0.56102798970165457249 0.58441507076271392851 0.59201234955106518676 -0.86650146738684996617 -0.30450125575952941004 0.74248840953381922692;0.35126735679483839236 0.8564050188026804955 0.22240242593265172055 0.12199218194999188192 -0.42241405842361712253 -0.57007773163732533561 0.94879308982811094708 0.24446849575365348084 0.31154951983149681283 1.0424413946797601582;0.93802143085610079076 0.24640577351932380079 0.90068636531418144742 0.10304177573423996261 0.9345970845222446588 -0.042717868601233360826 0.2893544358441690334 0.066593575749075012427 0.44999239460018591874 -0.79993869514215276695;0.4124563387317626284 0.22085144788274141403 0.628710964242575443 -0.84813946350499247462 -0.69306155358108578746 -0.5971167619891483147 -0.57418965780141595356 0.5683310865218913488 -0.776502047196360623 -0.37717377638404886442;0.29669835648895570568 -0.0081529729674748724344 -0.28109598653439610283 0.88251427287601291738 -0.65151155520511483399 -0.56218425580433095679 0.62858355502667684345 0.83219097547809994797 -0.46400714983449448114 0.76084352681039735256;-0.7118508669892844587 0.33874909422570653739 0.61089146750508083183 0.25952316659200030946 0.71734937945673415971 -0.45238939854507648208 0.82204016856718375994 0.54764967432877187381 -0.71036270949482793746 -0.5538509632531026794;1.1168750401152418572 -0.095024887997528006967 0.54767047959437165083 -0.18127707908189713559 0.20676043502119034745 -0.6563842826437488176 -0.29717377063394745385 -0.79548095973150234617 -0.6449168184770813772 -0.6070023111533486837;-0.3929373477999250075 0.81366656064079700972 0.014028594345018640527 0.24870606890857890892 0.229025613776241449 -0.48895426572971295576 -0.16950017606392306369 0.94093335403337319267 -0.89373848863279969912 -0.82789970306559279578;0.82588678247787661313 -0.25972984356419465124 0.19495966311088475109 0.068289105944322497921 -0.36164823887884256504 0.44020529457869389534 -0.61561478301773608912 0.061612949215079454435 -1.0122116895757051758 -1.021843542542913319;-0.51096147471792896511 0.62003727560105181826 0.82978096607359552728 -0.036802688576199275861 -0.33740991556019611641 0.12497426871834046991 0.36849337437130652573 -0.47602579785910897892 1.084335093671774386 -0.75183279729924301638;0.29403169411092971997 -0.65756347549638316519 -0.36786109722121301813 -0.71406566045303265788 -0.60017615027911153103 0.80922765866806256607 0.28970400102994614544 -0.78250103844713370105 0.49965469547796159677 0.66580628502699357174;0.76439921602507787668 -0.20152769687791785569 -0.20244741920308487182 0.65327752007260819767 0.9010093370701894866 0.037210587808072681515 0.2017880546101575856 0.70423925617497651341 -0.71136947461747213062 0.78721627042178232703;0.096365365915820219711 0.26139699418198453218 0.74238176096752228617 0.83864398369343051698 0.52883158998070234347 -0.033743129460670880093 0.70912214330177436583 0.64970345131363926861 0.4808809748404581641 0.89399105427998593054;-0.50629767376438306048 0.26221905109070797746 0.40677417735742249505 -0.82664321357080583486 0.49073592194035975389 -0.89547154660907080093 -0.0033965848076162315043 0.68505982987087610248 -0.43252775800227921676 -0.83385588335566718232;-0.086451354826207180149 0.14699348728871899916 -0.088947864085047706473 0.95983008562073646175 -0.35636900509305874385 -0.089904409581212291203 -1.0357694391388225785 -0.82131956620335155872 0.81387168464375692079 0.25531637136322998805;-0.094794159865966329259 0.97763835748931759984 0.93250401131149596168 0.85466639657214726888 0.85770776974229301359 -0.14289669486566725087 0.0080903256723078697393 0.11964320616115117768 0.14768080132203148525 -0.45962279501936320614];

% Layer 5
b5 = [-0.013580270270649341668;-0.46838741244270432063;0.60991172659215120433;-0.50355109984540802337];
LW5_4 = [0.092321921799283224175 0.27760016959247968416 0.37110719162607819221 -0.21672789408145076706 -0.5812441134028420997 0.8075838959862662314 0.22843720993047056389 -0.69203427027622543832 0.52932553324570785769 0.82930251445738600857 -0.22546891886166831043 0.090874818576207605503 -0.81695191696753721722 -0.73164268576028024249 0.79088416536719030603 -0.9396731893361762733 -0.8767584699774666479 -0.75150165577759886482 -0.53439620282346633751 0.20425622564249312774;-0.87947451407185117667 0.57570030498333890634 -0.027504270872957814476 0.98376804481128510282 -0.040365080566486133407 0.29918637954760174402 -0.44386615534272344519 -0.56262215910010415776 -0.33821058360210209948 0.29995024949639925715 0.79562243595057169365 0.26224803674337238135 0.60587068277581024311 -0.38956933586443653894 0.2328997462072219804 -0.52704810247971356496 -0.54656548555509987253 0.84995991738619758316 -0.3358050904054197261 0.65457109003723434881;-0.10330765155070986694 -0.87836224315512545502 0.76818423769292776271 0.22848155718656348867 -0.35438776606838251482 -0.79875224092837071588 -0.69792518191978314412 -0.25314075870148422531 -0.32151175234960827076 -0.86476914686923689324 0.89804720844312768691 0.76413065536473712136 -0.24649263394722820131 0.18320819695593160148 0.77376055793575915231 -0.26336795112316147005 0.28307213811660081326 0.018330904959952043498 -0.64988971125745509383 -0.89408675974641838025;-0.47104774226932155656 -0.73094577801366167336 -0.89178459188383318867 0.37512293153732190198 0.83717323540806964921 0.22021300163307522268 0.99561688645113344265 0.48864535534601238886 -0.17677296357898653056 0.73239947056571397255 0.23521133665978788407 -0.78719044444657892967 0.68389969925138927032 0.9614063975357063363 0.19316174282421427755 -0.87352762385662008349 0.073906891992754131238 -0.44116553990549145503 0.82217837047035380316 -0.68504382291138021799];

% Output 1
y1_step1.ymin = -1;
y1_step1.gain = [0.0401239503087484;0.0580187369567506;0.0595249297027811;0.0421369153152574];
y1_step1.xoffset = [145.974025425633;156.67765583252;158.113608099577;150.391794151573];

% ===== SIMULATION ========

% Format Input Arguments
isCellX = iscell(X);
if ~isCellX
  X = {X};
end

% Dimensions
TS = size(X,2); % timesteps
if ~isempty(X)
  Q = size(X{1},2); % samples/series
else
  Q = 0;
end

% Allocate Outputs
Y = cell(1,TS);

% Time loop
for ts=1:TS

    % Input 1
    Xp1 = mapminmax_apply(X{1,ts},x1_step1);
    
    % Layer 1
    a1 = tansig_apply(repmat(b1,1,Q) + IW1_1*Xp1);
    
    % Layer 2
    a2 = tansig_apply(repmat(b2,1,Q) + LW2_1*a1);
    
    % Layer 3
    a3 = tansig_apply(repmat(b3,1,Q) + LW3_2*a2);
    
    % Layer 4
    a4 = tansig_apply(repmat(b4,1,Q) + LW4_3*a3);
    
    % Layer 5
    a5 = repmat(b5,1,Q) + LW5_4*a4;
    
    % Output 1
    Y{1,ts} = mapminmax_reverse(a5,y1_step1);
end

% Final Delay States
Xf = cell(1,0);
Af = cell(5,0);

% Format Output Arguments
if ~isCellX
  Y = cell2mat(Y);
end
end

% ===== MODULE FUNCTIONS ========

% Map Minimum and Maximum Input Processing Function
function y = mapminmax_apply(x,settings)
  y = bsxfun(@minus,x,settings.xoffset);
  y = bsxfun(@times,y,settings.gain);
  y = bsxfun(@plus,y,settings.ymin);
end

% Sigmoid Symmetric Transfer Function
function a = tansig_apply(n,~)
  a = 2 ./ (1 + exp(-2*n)) - 1;
end

% Map Minimum and Maximum Output Reverse-Processing Function
function x = mapminmax_reverse(y,settings)
  x = bsxfun(@minus,y,settings.ymin);
  x = bsxfun(@rdivide,x,settings.gain);
  x = bsxfun(@plus,x,settings.xoffset);
end
