function [Y,Xf,Af] = nnmove_00(X,~,~)
%NNMOVE_00 neural network simulation function.
%
% Auto-generated by MATLAB, 29-Jun-2022 03:22:42.
% 
% [Y] = nnmove_00(X,~,~) takes these arguments:
% 
%   X = 1xTS cell, 1 inputs over TS timesteps
%   Each X{1,ts} = 12xQ matrix, input #1 at timestep ts.
% 
% and returns:
%   Y = 1xTS cell of 1 outputs over TS timesteps.
%   Each Y{1,ts} = 4xQ matrix, output #1 at timestep ts.
% 
% where Q is number of samples (or series) and TS is the number of timesteps.

%#ok<*RPMT0>

% ===== NEURAL NETWORK CONSTANTS =====

% Input 1
x1_step1.xoffset = [-0.845918270200932;-1.30490266637008;-0.735770118525281;-1.8459585658227;-0.528101821673327;-0.399260196702291;-0.482903155837444;-1.85436538017275;-0.506909444345782;-1.90921670427207;-0.705239758635755;-0.295907880808792];
x1_step1.gain = [1.30953763543212;0.659138484640931;1.30244174592676;0.630893986156085;1.96896808474155;2.96896242792547;2.00892073895926;0.504314799844091;1.99244644521975;0.52529696099827;1.35957720273726;3.52300748966925];
x1_step1.ymin = -1;

% Layer 1
b1 = [-1.796996378957522511;1.6078388653830462118;-1.4186813518085703567;-1.2295238382340942795;-1.0403663246596184244;-0.85120881108514223623;0.66205129751066615906;-0.4728937839361900819;0.28373627036171406024;-0.094578756787238024706;0.094578756787238024706;-0.28373627036171406024;0.4728937839361900819;0.66205129751066615906;0.85120881108514223623;-1.0403663246596184244;-1.2295238382340942795;-1.4186813518085703567;-1.6078388653830462118;1.796996378957522511];
IW1_1 = [0.033946113673195242588 0.34723434565714889066 0.75812075855093608023 0.52129460620524004089 -0.41063831856751964455 0.2105671410572815816 -0.047733316819519644447 -0.67927740098821520753 0.65738791195488810448 0.74477804478398001997 0.64977028053287755327 -0.41864493154359261329;-0.76222250100612587431 0.45779477791584782809 0.34753414688961797863 0.16786137052467253739 0.37834530781070657701 0.88638138598552185243 -0.20192865363297055059 0.54462137035410473906 -0.048733082109351413824 -0.15658744632821916531 -0.65116365903940542914 -0.75668088335124583654;0.76612878730418509932 0.30725304356819110874 -0.13445244927519081624 0.77785278635375332268 0.56937177725699950059 -0.29735971518036818928 -0.064354055393886611114 0.75547260799903093176 0.25269335966637385127 0.50359694407805843941 -0.76418032478013853126 -0.18916422599740090327;0.48516550455257589913 0.60861293154888040924 -0.31549712506550425806 -0.66449914608487237189 0.64655428298605532866 0.38416336517822996521 0.66129467895427829216 0.62770339345279868581 0.66374514137985785034 -0.18597448470342001214 -0.12690393262528229523 0.44058858736710315718;0.7132185703260461862 0.26924974301891985151 0.64403227899333881368 -0.60832439759473622143 0.22133709218947181241 0.027673888397041265103 0.028388306511837300278 -0.50483918640550873302 0.66385606808163855064 0.68955371373647567079 0.49259688116361755039 -0.63159982629400857057;0.1087027101624896408 -0.7735091958460167394 -0.68295027781844608317 0.65266642776437699958 -0.44652474648204132368 0.59803443400366429472 0.57706515554976733906 0.72096398475840339781 -0.30135623783966808409 -0.38212473767305943362 0.26533555050260226871 0.098020593234237146651;-0.21013957614053510592 -0.032931011923930560148 -0.11139154488769953399 -0.52943704069696773118 0.43319173099351571121 0.76618144674608934519 0.22389720512914865203 0.7797452941736640053 1.0140399089106879593 0.51742271919752691467 0.34081862765709236562 -0.21507888109256517728;0.38759300232879179138 0.10559141465793078773 0.32167698675007039277 0.33531526766603386713 -0.10675016331321754426 -0.91370748802335644001 0.72413527865416082996 0.77460030566032056498 -0.19300956252071399533 0.79851089808813169313 0.38551277428830310612 0.24037208669232276725;-0.13835784754924493334 -0.35036606518673502064 -0.72132831718732359771 0.37006891717304413181 0.75801750071118012553 -0.2495045695971313815 0.79449916262247299859 -0.30890779518339944731 0.68451088440251584011 0.29499843801730513126 0.15174502679889018131 -0.69851941871082812163;0.053093852189444956657 -0.82767608798993863584 0.044921397101521542972 0.53122293290988398251 -0.00056211947653776424879 -0.48830247904417217741 0.68377274262670351135 -0.72090736869165350509 0.88991605253058558844 0.084518999592869820114 -0.48131065295413211214 0.025833593357931866619;0.6738084170494047509 0.4840819330997074843 0.62362484884370539273 -0.47453653143583029994 -0.044227246595722899403 -0.77842201788318809985 -0.55266479177379757015 0.69929721062256222641 -0.21547932522313822945 0.19913113902633119978 -0.46201551119247202815 -0.47418907890751926804;-0.2671250799095037376 0.050799140234043776987 -0.64162294959712085074 0.078780910866024636552 0.33107932980906290554 1.0790795704239148911 0.84850269039460068932 0.25339734414376852145 -0.57748802230924378698 0.086126869218182439125 -0.36595364242621408746 0.45204821665241712303;0.72827011944407904487 0.21096053648960558236 0.059805406189853277388 -0.3163651911641353065 0.69596669815216860577 -0.1842521474296185402 -0.66524935592077205637 -0.3911935595616639616 0.32372867509019043197 0.70697602050527785789 -0.63859020652325637624 0.6514063589559052625;0.3566946312426732546 -0.72713068066205432949 0.5450138189242789144 -0.18742963723600353232 -0.21596265184848931207 0.7841303587369041761 0.46607525790816473066 -0.25994150802252968813 -0.83470248761868193199 0.33473997825046475363 0.41690845168911944141 -0.55873803741731131733;0.60648372537344963362 0.045106550727170145743 0.82144972725468679009 -0.58501540366503490542 -0.81363838211164418723 -0.12281853715439947083 -0.3116835631621343583 -0.74634744679271047829 0.1155953140698073589 0.082745724655009872395 0.70043215088666321844 0.015129594184368664114;-0.62295494492402403441 0.12285877917961224304 0.61910573156752390922 -0.1954799688073675934 -0.64466988399662972231 -0.71660752051659248885 -0.63380419767889828453 0.60563545038805288723 0.63413251885253418827 0.038784113910397398362 -0.47038424130158795755 -0.28636910957140243594;-0.30669823286187636313 -0.36381164590644843315 0.72275093015865676804 0.73362465100704032928 0.66823917630109352928 -0.096413093227337695601 0.54115357818023646086 -0.26571470669021851618 0.66964699936456995033 -0.72633069437090491682 -0.027275655284432681613 0.38233663976373966076;-0.84241642065243615978 0.74940714153731036173 -0.28891556099890941534 -0.40365712494149108558 -0.28660022964428888415 0.64823145349509425639 0.54132759662875784556 0.20994811864075024754 0.14945224094048109587 0.91059527981850374445 -0.068107132299282016619 -0.12606512113203885428;-0.4686762148499785674 -0.1781260679845585726 -0.20908163994089526416 0.39342641118586757498 0.94687747534050492604 0.70125680048235461417 0.17865045279880209517 0.013791368283543924481 0.79526978429101269352 0.051067104417786786386 -0.8212079114174056782 -0.22230985123697033501;0.11312268645512889298 -0.062384452993993803893 0.95694076050054821536 0.85006677462598900785 -0.51226194558056070694 0.6013812145128819564 0.65101722018756325028 0.061992879483104675054 -0.59675328051319331824 0.27776102943132136014 -0.24844677950985352699 0.16561584984753069394];

% Layer 2
b2 = [1.5708258360227485007;1.2217534280176931549;-0.87268102001263814227;-0.52360861200758279654;-0.1745362040025275896;0.1745362040025275896;-0.52360861200758279654;0.87268102001263814227;-1.2217534280176931549;-1.5708258360227485007];
LW2_1 = [-0.36297744956019084572 -0.055101497237084753889 -0.0061377482305684325642 0.27476878968223839017 -0.47024175624908720605 -0.425412474185257794 -0.44745219428404842121 0.49696272405305058628 0.040336957051947570918 0.36952391537408357802 0.35664542980061547661 -0.46514249495926962563 -0.38529359957687414617 0.48171814722075012583 -0.15885227705910723306 0.3972578906535066956 -0.087002058690248434969 -0.48154134934329700934 0.020014817223639281424 -0.35035555833733939002;-0.56819324646356539343 -0.34484892464427741032 -0.22830263105325340756 -0.39207975409395257049 -0.024491366242164507722 0.39747086994141722638 -0.10602743552200648292 -0.30120258442115488418 -0.039797985180188386045 -0.41795397478412565917 0.10251013251633996071 -0.32540396123927789462 0.33982734621446547552 0.017811307906963880915 -0.05973786922680751621 -0.24726470295368058183 -0.29180173773432982465 -0.5199761445370014723 -0.54462975285574166673 -0.65879762120654361546;0.030272889870547183694 0.23468034902210038739 0.088294147055070368313 -0.3103936474418679814 -0.470877383725820442 -0.57286220741502069664 0.30605431171427133208 -0.33478425506187736715 0.53806333077191936809 0.15584680548756879581 -0.10932082797808041763 0.37163662316210632763 -0.60929920657313130228 0.42312778269598422254 0.30862264190549593135 0.36723615877595883195 0.45252410851478436227 0.044515069133397477952 0.2348863930247384324 -0.21336965877371974476;0.5633722838593590021 0.34257779169547486475 -0.088844362351698555336 0.17853758636760941325 -0.044798465670015913398 -0.49596900015173622789 0.33814930553144162406 0.19365786477480156913 0.41853116507296456161 -0.51182339985412939054 0.45099452819666352443 0.45934944004084682367 -0.18861268883049603362 -0.18067235062374795151 -0.49882092464593258407 -0.088095611817050292758 -0.30283969929792570186 -0.36094660702757874748 -0.29138717100914246494 -0.33152036487034525214;0.46229655330265467805 0.55286850619243010918 -0.42945177752885255185 -0.05590074868090320892 0.54899943219777369574 -0.18705720550015283998 0.19519778492777614676 0.47428034369585270191 -0.059469879094990144019 0.02505258634861542294 -0.32129195642452185178 -0.30768146324371620226 0.52165553938090392094 0.11363400169381160376 0.46123081995138215383 -0.14532776089064708414 0.32739860979428109244 -0.37036670409422517425 0.31237621120760028504 0.31341895417337195529;0.26721114414341112786 -0.049144801903225628081 -0.60089294550668725936 -0.2255808342888329654 0.49838259686022928774 0.21444276613147955635 0.35306941231781518997 0.40127330102276609347 0.27441911809491209562 -0.13080044420423722618 -0.54249496993760193408 -0.10984099597901680889 0.48470458868597687818 -0.46070767894250541641 0.36628153195120988217 -0.44286030741591048132 -0.10600851402310119964 0.40149251496333204781 0.14169823355773794593 0.18137853997636532721;-0.52936424252810199143 -0.47151242010871391441 -0.32911773851054682005 -0.4509667993960795318 -0.26435401065744151827 -0.29610565160864182888 -0.34049228025666644637 0.061407367833416826031 0.10475495270745195653 0.20439943109387356812 0.21051158114064774662 0.018385991118635165026 -0.30463934265723507933 -0.42688183088826997524 0.12811720528154382781 0.51666248953942317534 0.55859940932969442962 -0.086339010445870584265 -0.43178994465694614524 -0.46288529226824376428;0.15911856506071445083 0.58094069877328136098 0.57080335341413213079 -0.05901921015410216409 -0.279972603858356206 -0.22082591324054709481 -0.010420991802165395848 -0.46964339174072167182 -0.12857338094796050276 0.59467240881542571262 0.19068117481067489716 -0.12154127441965698053 -0.42751057085586630091 0.10737186229034466345 0.5841075772572797975 0.051358464456471929205 -0.068184430064753234757 0.33787799954568492611 -0.25720233020037991389 -0.53215220262686691033;-0.17022428616969279003 -0.48889748006669192515 -0.32292283765336105006 -0.5858300024838214437 0.089571601025683927899 0.54790583882445687003 -0.12725487288587811197 0.50231072555038880356 -0.10258776134423414073 -0.54016069383832143735 0.005619892357565289473 -0.24878760042961178822 -0.015534897097041384245 -0.14288163603458753359 -0.26592624346153681536 -0.53609190860764255326 0.40969682773442139823 -0.39282952753435546045 -0.32946176465167559266 -0.039786915404279754593;-0.013827065432529017305 0.034195037096416025513 -0.16794385093293620614 0.146229397826241031 -0.58503756413574548034 0.23196339422055511914 0.27849189252980283138 0.41854697357790099366 -0.56828958662859840878 0.1604746647964883921 0.5831960153099458033 0.44751768807043468268 0.047253200717983084855 -0.4810985551636541846 0.059997419904745497021 0.42476245240383819768 -0.31782736444432152512 0.31371649463719647466 -0.22919618597971408436 0.45712180854223521953];

% Layer 3
b3 = [1.7624955765118339723;1.370829892842537312;-0.97916420917324109574;-0.58749852550394465744;-0.19583284183464821915;-0.19583284183464821915;0.58749852550394465744;0.97916420917324109574;-1.370829892842537312;1.7624955765118339723];
LW3_2 = [-0.87265883014266831808 -0.10715314426234298639 0.082826183049374474399 0.44519902385747806006 0.63572299095742790254 -0.47532700026657143111 -0.47285252326220700292 -0.6018650830929457296 0.47663113462880962734 0.82778335071236441856;-0.53783767791399672564 -0.3894399359547514039 -0.57111941748990158185 0.071445517537138153452 -0.79478789338035260581 -0.69781162599163348847 0.36815512012565293487 0.60830576104385003511 -0.29525725259305829473 0.78917436430584120277;0.73550842202540323012 0.55483166154056684505 -0.42824802151930602134 0.60663986918315981889 0.055077135312999188355 -0.75115914441194486795 0.067117464877544233404 -0.83866644848362814635 -0.60701831221321711496 -0.2501211677446986692;0.26222868203352700522 -0.48693881500750668678 0.070856788341269377751 0.26013965829633950433 0.43741378124125696036 0.89108960826755823081 0.44592609804820493302 0.86674609659839796372 0.099416044963908878351 -0.88457340161329933714;0.49177100823980984812 0.94964247692095993258 0.25895105789582834044 0.7636408277277733081 0.18030699643343300886 -0.50599855170835283946 0.50285874471564750987 0.027483754119860457493 0.2964362285823969323 -0.82612727576349309633;-0.30115552172218074123 -0.39234683649312834808 -0.21024242397130255 0.57711197442577388816 -0.32406729407645828989 0.31690179883039498732 -0.94176276232269029443 -1.1058289377569057166 -0.10458124627904882842 -0.39792150312269697343;0.49749342429635129426 0.32271891065906715967 -1.00359555281621593 0.92047385965084993487 0.17570458277772518785 -0.37868775520902114851 0.28053065252088782433 -0.34394248271823441021 0.69317489975873469721 -0.22023954763762998432;0.47023594260547857404 0.96389217945759275707 0.0069699047524535663253 -0.45006135798587632024 0.003968945483762689394 -0.88944107073852840539 -0.19139963459298126036 -0.71276608546397202115 0.041757341310178316962 0.64501373415908946907;-0.38672500388223091106 -0.60909776931265335875 0.24169926032389438264 0.6548051005446506867 -0.7138322217993380292 -0.87083704743333545384 0.46364386339138047299 -0.71790352295188697429 -0.28160759080841846203 -0.14518451806059018416;0.09624256187488962333 -0.61925164163397894423 0.63286420162112744237 0.40012686224323057438 -0.17014998625499166973 -0.082554172794324851004 0.90092683377762616814 -0.13363325241488444028 -0.65652227461724399493 -0.92559284512711847981];

% Layer 4
b4 = [1.8889959867429886309;-1.690154303927936974;1.4913126211128857612;-1.2924709382978341043;-1.0936292554827828916;-0.89478757266773145673;-0.6959458898526800219;-0.49710420703762858707;-0.29826252422257715224;-0.099420841407525717415;-0.099420841407525717415;0.29826252422257715224;-0.49710420703762858707;0.6959458898526800219;-0.89478757266773145673;1.0936292554827828916;-1.2924709382978341043;-1.4913126211128857612;1.690154303927936974;-1.8889959867429886309];
LW4_3 = [-0.64978062582444129358 -0.84932478165875802123 0.74379968661376361094 -0.042523379974729512421 -0.013916952380769929271 0.7615771714253460889 -0.14413540679948291801 -0.92396246287894290283 0.43135209469134727645 -0.47848974110885766908;0.2832301600579095191 1.00583221508420384 -0.20616105525837091772 -0.41503370003063189131 -0.5427745940893351495 -0.15519782707283699685 0.39963967397076033405 -0.81357308203124978352 1.0294334589890432596 0.24818504341867353435;-0.25584100634956113973 0.033082720605500895439 -0.87976605867093460311 0.20604416131575817306 1.0095234003885273921 0.67954511389568339474 0.98533811172868823736 0.3730119051768281957 0.2947466319147263869 -0.086547824880258056313;0.32949693569663168757 -0.35348929866734907224 0.53771173510114822491 0.2525221436749603976 -0.3154255779999211029 0.39360747661464889902 -0.83903242115820675373 1.0821976999554039356 0.79017339964034238875 -0.47745174831342618305;0.0007090744942044670306 0.47984734509183107898 0.34528778068737492335 0.82498802818611127741 0.22425603238381039417 0.80321450612252864865 -0.65025355265419060302 -0.66177025816679824199 0.10353642634115871324 0.98554010704341621363;0.022450868190668018393 -0.0047227609975068569545 0.50766497354917516915 -0.89369904883516937399 -0.16900644622590013655 0.53578278738674223192 -0.095667893998361827612 -1.0399516227390728229 1.0511595135644837828 -0.01197313897612408036;0.54981336823713922168 0.84833535282208494266 0.5942767864693125901 0.775734452213419301 -0.86522080436162163153 -0.57991675272191811619 0.22592722376095600301 0.12698703125154414684 -0.18388505932037302326 0.63680167708051349518;0.058402517984356611125 0.75900952766952056727 -0.18061535434610023754 -0.046940214614065001175 -0.66318118350832255814 0.84233473632585564861 0.29615408501711215639 -0.13322128234775262867 0.86271840082617978762 -0.97718931088611593605;0.6977153173902439498 -0.040560914361565669761 -0.16198278029420504209 0.078363445092423322791 -0.95949486214524470906 -0.14963873099618538176 0.58725101597765771988 0.59383563994113131024 1.026137285989158876 0.59497087523017133659;0.57694529045135756196 0.40216977797269154449 0.90601599673789534606 -0.96949530853868137736 -0.37792942198291284983 -0.14888255054033730507 -0.15250362252188628953 0.67488172638673848969 0.44179666928383198865 -0.6884835811259205629;-0.51082793495955625129 -0.73505433181202894932 -0.30027238096713415594 0.54511368626710499097 -0.89729661441719654746 -0.80265863706816542589 0.24695079936411254429 0.0082170459818996788304 0.69880738478464410335 0.6172173638740042767;0.42816143420877583736 0.17985502827939625625 0.0043499571258505537186 -0.96762566928542170785 0.65299015757852307829 -1.1029793957477393995 -0.0078070802690727407469 0.7449472977480918745 -0.46713967932023814367 -0.011438301646771249082;-0.33024924320685056234 -0.79053849373612206097 -0.93286619057932274046 -0.33250802084111241719 -0.76741580599958258979 0.15773982827565954934 -0.18768713869574066289 0.39731419778437471191 0.53897129181008651688 -0.86954315123143799404;0.47582316998336637859 0.64160188595083567087 0.010440097188321815352 -0.83343513018815085225 0.25122280011131109534 -0.78676466078313134211 -0.44649430666006256763 -0.48593411056990942765 -0.6973590037492823912 -0.79474009862533778747;-0.68498494488164185512 0.21815202689285448368 -0.86834727736790018326 0.3238714587712915316 0.22544346677681231794 -0.82933201584391369465 0.49111443324824866075 0.76833602020896685225 0.29059107999732086691 0.73348366646768103916;0.17150528272630832793 -0.00072130986681184143614 0.083651968271845109082 0.93419839006563021311 -0.35249278300937031405 -1.1444068122041224367 -0.85394299155184882899 -0.55264941836549630327 0.42334913636986382102 -0.10669748940321631403;-0.94971439936814006089 0.60023804562611660085 0.254025475983635729 0.19844143870528774265 -0.73910409037221924677 -0.73980944113756474945 0.56369385545281092131 0.37583524060627310215 0.73172555792287474752 -0.33784122103014585514;-0.58666932084708911521 0.15980697541301092102 -0.23884397412943692007 -0.72953450034762223897 -0.87308892709147301048 0.20994763808305663688 -0.91302028087739939277 0.31183145157761726907 -0.7848748154169927771 0.50604742528065327356;0.69239844661883065413 0.42212006550883979239 0.43147533750457051083 0.34603043697476792984 0.51145546465541602554 0.21389306062926488616 1.1950824751943205371 0.4313172161443784014 -0.59237210831561271096 -0.57645341292899177077;-0.81456809634333315895 -0.58145607255201747776 0.68599649580018184913 -0.81823305014100933263 0.62218042482721003239 0.69100157500486458773 -0.19713417096860064159 -0.095059550387303404229 -0.52531691467655439176 0.48800538462595927092];

% Layer 5
b5 = [0.91747810716767630446;0.47761944049856963623;0.025349775537045760032;-0.61992733070760031033];
LW5_4 = [0.39913456116955825514 -0.49348363909515202685 0.2509552923448734596 -0.033356914392835390615 0.33069279401977103028 -0.90537572713925795753 0.76595820999769115289 -0.045855414117973003485 -0.77308368128471860459 0.25698138557661343029 0.5199029910744010774 -0.93431609811770988117 -0.051250620038679306489 0.24167447276354070418 -0.02367812311642758516 0.54565955232236085237 0.14585004243276733504 -0.53089804776575055811 -0.7516305702445289505 0.48064269901693257303;0.89917594378756793283 -0.66457406756317372043 -0.31182855264782372018 -0.30613178090169568257 -0.0021181300462864705025 -0.65127985807085719827 0.96645092354236639132 -0.57342711944939650515 0.57601000899665644184 0.26201823368316401464 0.69689086503378572246 -0.92437592702398152511 0.31299050969771857744 0.1901871041833551601 -0.81819636992659483532 0.61736455070852946925 0.086614057280065104294 0.083873696583029566654 -0.94848487977913564784 -0.12378927303512621272;-0.79810337258755303935 0.79845449793904910152 0.93572486627833306727 -0.59088145795651381142 -0.88820631523632420645 0.48680488435253388424 0.064273131921596116101 -0.3220833548292276749 0.31631245469849789131 -0.06581289392327049903 -0.0093391732871914712177 -0.48897160089720026477 -0.77602992983879426347 -0.62421733007936119897 -0.23264342085230360624 0.86892878747349899804 0.71796959823178241322 -0.50788393718390278941 0.67346840776651495375 -0.94613502665068915931;0.10091809903911541646 0.1258373394403324852 -0.14147899504523420156 -0.249208884397511099 0.77393214271464461085 -0.85071163317644793445 -0.66071227586497305317 0.73972504894130985953 -0.069503976314078341758 -0.5339941161316044127 0.99685433095641640122 -0.71417048300594410115 0.33400429919920493482 -0.56047914998864123426 0.53009762524568748709 0.2406362925661871266 0.22370228253864188339 0.95259908568590501154 0.15334149180019585046 -0.79575935384248497328];

% Output 1
y1_step1.ymin = -1;
y1_step1.gain = [0.0372835086655452;0.0385819932481875;0.0372642092768444;0.0378901285281061];
y1_step1.xoffset = [140.666838621166;144.986763517599;144.540423916782;141.245908245125];

% ===== SIMULATION ========

% Format Input Arguments
isCellX = iscell(X);
if ~isCellX
  X = {X};
end

% Dimensions
TS = size(X,2); % timesteps
if ~isempty(X)
  Q = size(X{1},2); % samples/series
else
  Q = 0;
end

% Allocate Outputs
Y = cell(1,TS);

% Time loop
for ts=1:TS

    % Input 1
    Xp1 = mapminmax_apply(X{1,ts},x1_step1);
    
    % Layer 1
    a1 = tansig_apply(repmat(b1,1,Q) + IW1_1*Xp1);
    
    % Layer 2
    a2 = tansig_apply(repmat(b2,1,Q) + LW2_1*a1);
    
    % Layer 3
    a3 = tansig_apply(repmat(b3,1,Q) + LW3_2*a2);
    
    % Layer 4
    a4 = tansig_apply(repmat(b4,1,Q) + LW4_3*a3);
    
    % Layer 5
    a5 = repmat(b5,1,Q) + LW5_4*a4;
    
    % Output 1
    Y{1,ts} = mapminmax_reverse(a5,y1_step1);
end

% Final Delay States
Xf = cell(1,0);
Af = cell(5,0);

% Format Output Arguments
if ~isCellX
  Y = cell2mat(Y);
end
end

% ===== MODULE FUNCTIONS ========

% Map Minimum and Maximum Input Processing Function
function y = mapminmax_apply(x,settings)
  y = bsxfun(@minus,x,settings.xoffset);
  y = bsxfun(@times,y,settings.gain);
  y = bsxfun(@plus,y,settings.ymin);
end

% Sigmoid Symmetric Transfer Function
function a = tansig_apply(n,~)
  a = 2 ./ (1 + exp(-2*n)) - 1;
end

% Map Minimum and Maximum Output Reverse-Processing Function
function x = mapminmax_reverse(y,settings)
  x = bsxfun(@minus,y,settings.ymin);
  x = bsxfun(@rdivide,x,settings.gain);
  x = bsxfun(@plus,x,settings.xoffset);
end
