function [Y,Xf,Af] = nnmove_01(X,~,~)
%NNMOVE_01 neural network simulation function.
%
% Auto-generated by MATLAB, 26-Jun-2022 21:18:57.
% 
% [Y] = nnmove_01(X,~,~) takes these arguments:
% 
%   X = 1xTS cell, 1 inputs over TS timesteps
%   Each X{1,ts} = 12xQ matrix, input #1 at timestep ts.
% 
% and returns:
%   Y = 1xTS cell of 1 outputs over TS timesteps.
%   Each Y{1,ts} = 4xQ matrix, output #1 at timestep ts.
% 
% where Q is number of samples (or series) and TS is the number of timesteps.

%#ok<*RPMT0>

% ===== NEURAL NETWORK CONSTANTS =====

% Input 1
x1_step1.xoffset = [-0.591993057816088;-0.741915059089314;-0.498343469489469;-0.548728791284024;-0.444470319361263;-0.129336230905413;-0.188630739539242;-1.21741074482007;-0.43036805038701;-1.38103138589987;-0.670619673906455;-0.204751776761318];
x1_step1.gain = [2.10892462517051;1.23275682641119;2.69518563771979;1.45398110375397;4.20198803216321;5.94625840239766;4.69883127494388;1.20366402231876;2.51717678360922;0.624825121538955;1.66670643459339;4.31891223959037];
x1_step1.ymin = -1;

% Layer 1
b1 = [1.609281256581927444;1.8810503092474517572;-1.5800452944890452933;1.1837067404580272623;-1.261592636962332703;-0.77104641521654071479;-0.77408537231284058056;-0.56473722039964635577;-0.5038534512361421136;0.69843496611950561803;0.019404597969130833734;-0.36103316512263156079;-0.5366843276618097347;0.78681428733417169141;-0.62967520841732504966;0.70947334536963468921;-1.1779785810089606901;1.4200603753518894479;1.6398578422177276792;-1.8480608341411954854];
IW1_1 = [-0.77311466357664393456 0.5632904360751579409 0.60895499389200502538 0.35389706309002078033 -0.15546896651026420599 -0.32569644617434884148 0.13374678375722612311 -0.44213651946915472069 -0.3262336711825316593 0.70648143059143975186 0.11274498027736352956 0.5800603581630899841;-0.41829643033126523433 -0.41271181429040820765 0.54101065499690204064 0.54602115233651149495 -0.36622150983913032141 -0.46223386431633017857 -0.0097191703278062448884 0.88622871058571439651 -0.19801254138933285787 0.25946196439068180961 0.50706741800109200735 -0.098685637544798449072;0.50372916611513729457 -0.37821947606099137751 0.44680927524557573216 -0.1226232685084457652 -0.41658750791735621455 -0.38193071852373794428 -0.61558173630844481572 0.53440510619603165399 -0.59379316493535161392 0.34970846006209804768 0.3734692338574736592 -0.17052859741789330728;-0.70094248640007639217 -0.52144803518056004332 0.12970483429342569148 -0.15486928351534537396 -0.31965594389819262933 0.12437182032656883546 -0.29895617267203494771 0.16866333232688138222 -0.55615878305874788534 0.21668645171155112572 -1.0674260977003522388 -0.81344770469683935765;0.54509206047336422607 0.25734891810250265509 -0.87272420570934905459 0.52072616193329102074 0.32218259153911499304 -0.57822521815224781072 0.60531619491630694885 -0.30353962577101162301 0.33898933735082315 -0.26140170969058901251 0.1756373007945745135 -0.39537337367909397567;0.34216183907023434152 0.67689441815699902261 -0.26989530048631693582 -0.039779230338086599139 -0.074508689562296837039 0.82348666812558635186 0.68416976629542936017 0.31384266285974421473 0.63211733057166430427 0.023380020676452378109 0.60357151166334566117 0.30665351183801070611;0.17005203906800259173 -0.084905866655429401701 -0.82331362635482085999 0.080260700796549289127 0.5543585183203291189 -0.0029345032571546805604 -0.6975424222872755875 -0.43451381629458329936 0.44495261374873568139 -0.58226607945043673542 0.42005061223734235787 -0.79170216587867736635;0.0525336276823156062 0.44201510480251887669 -0.056828678191326524594 -0.37954749113305813468 -0.38806990928120788098 -0.44707607249347369738 0.37594917899999391597 -0.41203526090268238757 -0.84271544539532583507 -0.50622066350849448391 0.5646722464692792709 -0.10555804129541786207;-0.11834980048792936858 0.57111683134954460694 -0.016327038382250896181 0.29760972734988455635 0.6070281501855342432 -0.58035720059363271606 -0.27487992191524734942 -0.52213415700846121936 0.67734696566605012702 -0.10752260512854150409 -0.71575427103264899209 -0.70299480418134896453;-0.53547532769602890212 -0.6149628567090114073 -0.53945264009623006274 0.81931300380266658401 -0.10277621626667064747 -0.12873357056981354907 -0.18965961386751026274 -0.46238951574833009328 -0.19664102481444731274 -0.39993790206573881507 0.81404356179624237644 -0.2137292596434861025;-0.90374217903113118755 0.11694223497118493016 0.55891745644183343789 -0.20489317357225214633 -0.68748647096444281956 -0.77915725077738184901 0.19466237470448718994 0.58054637995971936082 -0.39515048212938641559 -0.062977908649026040355 0.26365397536550660984 0.32712045342370810186;-0.28996586330114793029 0.48627469190445998803 1.0068597013433340237 0.64575391286851990813 -0.3162108795999611921 -0.22383206276453104788 -0.34083522370220292741 -0.44173668265711429903 -0.90481307842626279569 -0.047411092595789329496 -0.52484490328782473778 0.3267990827615344096;-0.38395780927729106224 0.049910356343235588727 -0.097968613843805202324 -0.25934774058765397431 -0.36776105836004674421 0.60075501223141369866 -0.17596529022632353967 0.53416519885211721785 -0.30972359412274108603 -0.25288630525233229962 0.74567385929107632414 0.472126851735608144;0.56677432845649022841 0.37467068115902785186 -0.57460657950298443808 0.18371049574043152308 -0.21566008133405201175 0.01764594866086806671 0.019026900566470602433 0.34388535034940248547 0.91110095680731373324 0.016019240804472388573 -0.66080244992399561621 0.20997266077332088496;-0.25777950018280010314 -0.21012408783396288592 -0.27397210385991227488 -0.54752738625511943038 -0.84316418002301574131 0.7692074996219616656 0.74747224928719324666 -0.064018386875078256426 -0.25027112884738178522 -0.6439481489554440552 0.069084006676585915652 0.23215202466130327452;-0.038607641063471614951 -0.067080022187276724943 0.072531359501832828873 0.2058065212295266122 -0.37546061709000361217 -0.17440927120335333877 0.5512348014535268792 0.79984971161454399002 0.29633636398201285145 0.0012829093667585404672 0.30330433872214462854 -0.39489233366506654166;-0.43071493361919782616 0.082264087749947270578 0.4900621416640811856 0.58797322116833883321 0.88263769457829022169 -0.034203838022227990578 -0.38273437731411807938 -0.46096100613824692038 0.17174528941437791629 -0.38415312672539769778 -0.81758168020295041156 -0.41698920122320309867;0.54663073222293867559 0.250243645145666882 0.36471450339142846842 -0.64260510448402607953 -0.40747237206328135173 0.57453584994127548935 0.0072817166880940874946 0.64516369865935341288 -0.35267216082236274577 0.60064107561867396967 -0.53820509789967363456 -0.47493687793274635967;0.35624979541051643439 -0.48632576477756422895 0.69531824682157872264 0.17938742755270312146 0.29092694545492348013 0.49907667075356682007 0.14280901939046652949 0.56270681491518237394 -0.15422154561085599234 0.64571681005133452214 -0.81986803891774995279 0.39537096538158555958;-0.2154772870199624657 0.023678024983168500378 -0.053042117686536847943 0.85221727233489974473 -0.77573051969080319967 -0.41925270858263585794 -0.5429499928221478422 0.30082916206647741797 0.66438644871838425932 -0.6233575840660589007 -0.46353020278313888936 0.040440684734135062817];

% Layer 2
b2 = [-1.6244419091336188554;1.2136568378297163395;0.98203165199107056438;0.46366599676286573972;-0.13097887662833052058;-0.028328296870689311654;-0.64758246319597956298;0.68961744220453446985;-1.1353171307875451479;1.4119160185506061111];
LW2_1 = [0.17588675468712219874 0.024346633809913868079 -0.46127871237683831795 0.11731286848853214599 -0.26015256609984538372 -0.044930823729781362019 -0.011779566987935953526 0.19048193019542764004 0.094538811750696061242 0.61774172022728002229 0.46116853711103550362 -0.64943651499527077497 0.45136560243779166868 -0.023116507042412023226 0.50460957325736743861 -0.2028787473136734465 -0.53559703640234546107 -0.51969098456276852094 -0.016469198888356205435 -0.40856978459951825977;0.12165725500358220978 -0.1926128644330248052 -0.23656712161184909049 -0.68700194949679771472 -0.19754800835779720569 0.63346916529937724594 0.25166053941502725122 0.08057386776399458328 0.11108621698363263519 0.197192674907595622 0.20880529111264173325 0.073684486381224809093 0.21557589299798546323 -0.56394275543520266947 -0.74284297337597360311 -0.20067391560956640562 0.25552143950158651142 0.40189742888410961985 0.094160329087179445162 -0.27369446985177992016;-0.34694993671879026387 0.12478700300659299749 -0.30192114249449614194 0.55766179099391466334 -0.0048618489059768310936 0.012496054526948663019 -0.1961511115964421903 -0.055751265485019324553 0.44340573227631219222 -0.26621505030108566503 0.18187336608462909004 0.24568098167595825432 -0.17453742227116189611 -0.060076196201731144053 -0.19229097342454165576 -0.34389705993519048555 -0.077486085068977764156 -0.48494896241379253921 0.76117634527903244024 0.2487591746607411558;-0.3255380062689838816 0.24489835059067122103 -0.25448451360940249621 -0.60007753572670852193 0.17571216258519978259 -0.10160772789205903266 -0.22103225961554831547 -0.49772305969338226372 -0.13132674921383474809 -0.32756361259771105132 0.10737258772788679795 0.066774994119508337964 0.12437779856756901731 -0.38976872253627603548 -0.019989971127496616171 0.085981836080111229137 -0.068396268885622710232 0.30287347383270685208 -0.056001377105948893509 0.41211431175666496385;0.22242861426404930691 0.42260661010796873871 -0.093474229609669209906 0.49089691213882380438 -0.52776072161228970714 0.34409492706855077104 0.25076916761666845357 0.023946025264424849327 0.37986045971435355995 -0.13304445610226581231 -0.50709142218967218074 -0.12583574152332499541 0.41636636579213692766 -0.4935446720195273973 0.040019491172894980369 -0.179228588262088262 -0.16931575350159921989 -0.24718422238351928089 0.18120220409003404138 -0.41556021009070209793;-0.56811789222331887661 -0.36130694827291764959 -0.41263356478998308718 0.57006684037079058402 0.12010665149847629674 0.16293284102086791343 -0.057845829705038966095 0.00054518812950000040268 -0.23136429732112107072 -0.46267575262463278563 -0.2763756468675870881 -0.64328426970555241393 -0.1497930139666434346 -0.3363981328751551314 -0.58942864359941560259 0.21865833976009682593 -0.20495790944624986407 0.026883310235559332996 0.10932876211224389074 -0.32605882520308254735;0.12339319656451405716 0.65769611847460485166 -0.19940060504719236967 -0.11412714502135104522 -0.055518641855464137547 -0.016795751933424363234 -0.11274432050123563143 -0.056383527677893272023 -0.04132737326869561495 -0.069330821831606673222 0.15704561867757685367 0.10363334028321856406 -0.39001771628342141174 0.21449593392478366605 -0.78889837499389914299 -0.003619020309529620387 0.54185153755802228925 -0.027928510855400157098 0.016367024348375516785 0.19536200478722301477;0.17088374256724711553 -0.036735264952555947426 0.46020176098129089715 0.40964000870351402472 0.62141909542390061372 0.23149031928553834292 -0.32097898545033548556 0.51129309790031185479 -0.40057840688383605787 0.27931012821323081274 -0.15599126452203662674 0.70890545736752796913 -0.17213391859839746734 0.054363582949368084718 0.052691836025765735607 -0.47044177443017370921 -0.0053765648193600211469 -0.24200911607409641979 -0.48776166031097867304 0.16846635087131170416;-0.51985223913621592118 0.044113037935864587991 -0.46762620080146616308 0.37614393070783636031 -0.13663455836931631682 0.64999257973110136088 -0.36786676840567616997 -0.30887467308711219482 0.0048026477070952817983 0.64103289036163224601 0.17766563534314280814 0.2150966201593726701 -0.071049826216185912875 0.31062307091302610029 0.5550540004415723816 -0.080669086923665367372 -0.39434180537938856581 0.46957323353546998046 0.2048036317933815964 0.58696725958128392886;0.0019639653380298651916 -0.49511433893884398971 0.39075663121665416 0.084734671394380040033 0.096816717756050343913 -0.53241960769775154017 -0.40483420111834611532 0.45118730219795444292 -0.033169947645943248515 0.30454560910853512024 0.16977821030928841317 0.12856847426998108119 0.071821836497772281738 -0.48853035225147750653 -0.21823563061416634268 -0.30424990612581837013 -0.62712599720004635895 -0.30931333581489761642 -0.065800819582132949459 0.51960439954857196021];

% Layer 3
b3 = [-1.6419393584321682056;-1.374023915380965466;0.9011809837901171294;0.53282626719971859508;-0.034259049677668407252;-0.21830205948456865572;-0.69187372305603656031;-1.0012473160830412944;-1.3842949847286223353;-1.5714183806721664372];
LW3_2 = [0.27043791222742874503 -1.0763806085875036178 0.61363492415082410147 -0.44565930261776598442 -1.0055411821179514043 -0.13721920269869739006 -0.8334422500113305432 0.18343733176053175771 -0.38600285098631220704 0.0066067444242268822535;0.61596713167640182451 0.29401827521274953581 -0.40955327138070080073 -0.715693027275294269 -0.64453247871171837069 0.41475305282650820615 -0.84821993127690131775 -0.069875486547531395765 0.64546621567261641683 0.76752044549099762705;-0.68524334799516117833 0.39397761446235113336 0.81727685813378636581 0.19264573650474553501 -0.34647372654977659501 -0.72033458519301030165 0.51538292669192131701 0.54200867835666066696 0.093796521080252659441 -0.40517978865350640083;-0.17685765955504181846 -0.51465340468440512467 0.55092451755946203473 -0.80697487144891988375 -0.1546055750498154524 -0.081548888806516423022 -0.33714330547434295804 0.48592698417438767722 0.24071883186897519158 0.76098195397272272444;-0.18650985845121886841 -0.2016653874557116366 -0.42459568674947212319 0.080032284646365803304 -0.079609235884821411 0.7827420796188316876 1.0518813428664359755 -0.18772773452178292963 0.43093388805633608962 -0.62313260008010951108;-0.098083182135996857531 0.29798724903410905851 -0.56920683226927393239 -0.096509069601327240884 0.67335641428887604842 0.019050419883957801781 -0.67133433565341960048 0.89967135290972144457 -0.2624897174948176426 0.27470476634203838673;-0.043825720352613721509 0.31683639134948615723 0.67220585908303243095 -0.41619239493529808227 -1.1044713321370482895 -0.30833455938106024696 0.81243405112433941806 0.21863043938311899073 0.20660977686622025717 0.42903302999098591464;-0.35300126865219116912 -0.61079557112647953065 0.38509664432202617146 0.042316044235726942013 0.54590143937890167614 1.0520185704983042729 0.67513161855950165613 -0.26813866030151162212 0.48121466372504179132 -0.07059796983522972913;-0.9165106273315449803 0.44805624720192060995 -0.33834624117079670214 -0.12490655808296700913 -0.96385464279508503704 -0.13127797484810824202 -0.038230248592608970237 0.053033874692087319691 0.1161410881283671398 -0.83422812844122540277;-1.0953920334574289708 -0.54361138454287682986 0.59439131833675629135 -1.0253118859300416332 0.94465533587739558552 -0.40428741571226212148 -0.1761326139923838352 -0.048020465008543310181 0.17146709314193561702 -0.14066873534530316414];

% Layer 4
b4 = [-1.8984747380407940298;1.6174198203786689376;1.6358379990494611445;1.3952417437802229205;-1.1366333960138681469;0.92557102430593718445;-0.69742694587329590039;-0.5470282179872522077;0.41852550861434140161;0.037453697502824345733;0.046852685248757464098;-0.35288417040478448072;0.48057727606170119738;-0.52090828737996308639;-0.84938798552737870828;1.1285448033381606514;-1.4176639199590530538;1.6372352665730176557;1.539458427614915248;-1.9331729071647458795];
LW4_3 = [0.98373705859430549125 -0.16138659852339690137 -0.30657288885086625418 0.28960903960168699056 0.86364073707205313291 0.50298916163404849833 -0.75298185899800496035 0.090616435666846267827 -0.75568657930883653684 0.47748446306023739627;0.031912217094565903386 0.5872627509696949355 -0.72782307385623890017 -0.15501800254563069537 0.82640899741492113151 -0.70309553140069880328 -0.098104490932201998676 -0.30033814997815660996 0.56821181378599916467 -0.72938661886827871328;-0.86960712861624622771 0.15523184996491273813 0.8475338251203636819 0.23193827092316737781 0.33943536451515282648 -0.11679699634414154874 -0.90626484836499121567 0.39779909253216561016 -0.15819197498004633484 0.82284448246331354238;-0.59691733241275246602 0.61412941308060631229 0.71209465865590892975 0.97776368127896085003 0.081564189889789806553 0.76531250488640079066 -0.22533871761068338668 -1.0708811126761244026 0.057926693498191857146 -0.37467506456649446456;0.28726675282858604721 0.93204795997317579914 -0.93721354971766313025 -0.7402859580576436338 0.37088281981889442696 -0.47893269880389932602 0.15861304050134564236 -0.60588045592928929661 0.66595671714597226565 -0.16969256297001528155;-0.057543301358936260748 -0.9364338930491252766 -0.5169897425887476361 0.19231423881724343805 0.01901389214781105258 0.020845403797470039853 -0.60590113783570820338 -0.53314269130745917114 -1.0385733814970690148 -0.8382623253722314427;0.34064683174441356961 0.66079285984642321949 0.6456660763966269867 0.23695603381242161256 0.62303460508919772387 -0.65972035534525208522 -0.25357094671058771906 -0.83865939023350977166 0.25018316389437450509 -0.2025663794225671388;0.61107062102673437298 1.060107759480415357 0.071553721445278009594 -0.25719512711687081419 -0.43289804530687597817 -0.74744381302254114807 -1.3013712034609654644 -0.64784284338264974679 -0.067908521398678867165 -0.4187877121032201333;-0.14849362698058754528 -0.87790491300280670828 0.68700965743545083786 0.25158993075743735224 0.52952819321605593128 -0.380031422827482257 -0.48757733688175786124 -0.63610211902672730844 -1.1628861376477124256 -0.33520148563784918361;0.37305068174552880045 -0.64519816786679795584 1.2410508082055320411 0.13573688003386788492 -0.60294863341970861281 -0.61559213706226034724 0.69707484072713754575 0.023970284170428551168 0.48991763717149783286 0.17492268264780941323;0.64244564167725659587 0.31907772684831314791 -0.45129680425417234568 0.53936840533376928519 0.51182946502144888168 -0.48988258698892322984 -0.42843209873777976515 -0.56349249010654756109 0.93988366506599396732 0.66181741800926041641;-0.1522406780849388519 1.3055770348318067597 0.44414931826062026277 -0.32142392182424184277 -0.48085686068142402538 0.17675396719925035027 -1.0745250352642141678 0.77209308964027489885 -0.11475578352643855951 0.64944544262830705694;0.60591755017264370409 -0.30278359484265005008 0.75424778740736297955 0.90644660368580576293 0.66360655846835236993 -0.50892564897907022203 -0.40119640432201053581 -0.060356149513965250131 -0.9217807873152065179 -0.28470956971205380048;-1.1355681759630467109 -0.30333455146136972802 -0.056068853427486887997 -0.63240584004625222114 0.62286639774940377734 0.4942701451377879418 -0.11759199682229783124 0.42144171036806354902 1.0399195308168198704 0.24529411451804161715;-0.63611644078290174864 0.45061337877759838344 0.17500248799245615716 -0.78231288694814160589 -0.58264363596267565448 -0.59532971110358190447 0.63260758596852273428 0.67790032060891602939 0.079325122341036419238 -0.42727258618123115097;0.7195571067135487775 -0.58017271778916701397 0.64827144822149618264 0.0534019535426760103 0.12796767132782749243 -0.64558132262621870101 -0.79414526538772434172 -0.36776671332620630706 -0.97349261744252690853 0.26376291164888404639;-0.88242917520963581879 -0.86704571178552747313 0.65135351626417359316 0.23842009934464525323 0.077654834720349688593 -0.58604271538171515132 0.46745061587604858078 -0.10540419869400656505 -0.40890404626593773729 -0.14577318378087236739;0.35267597311070142396 -0.29014558596017764325 0.85139736137748722733 -0.29313551686397243401 -0.62893161306680189782 -0.63572279593758240779 -0.24473803803788998779 0.61327844011839272031 -0.84155510152773616017 0.65684609768439183863;0.59634963103914584437 -0.41731682760164162671 -0.95246562926549893646 0.36889228898975162663 0.22318242338322463736 -0.10007369532174734128 0.53425304168000342653 0.95186517348452792664 0.10477869337590188514 0.51429555848903452109;-0.57023849963656059181 -0.43241987840931223053 0.67845003773082801501 -0.37841673856145058297 -0.94516781402386640387 -0.37398632184610725027 -0.3819328298521259546 -0.18474525171845446181 -0.0057366414586506181417 -1.0233301954926448118];

% Layer 5
b5 = [0.8177467341159888603;-0.4894509338923522801;-0.77664952190253422337;0.29351788299394582227];
LW5_4 = [0.18986943678332329766 0.43958620077832499806 -0.11436529351700210067 0.3243263627357159673 -0.4637695449036519646 -0.18857092936859748411 0.37762682873526509653 0.67721474436736017743 0.80128052208458833139 -0.4815382881269536508 0.6279804943270400619 -0.14826756425884907165 -0.61871579120989661504 -0.39595212430381454549 0.5360718871410610209 -0.84696122254698957832 0.61000392482516108128 0.07154175763935079202 0.5591835130745573812 -0.17857797716752496497;-0.44504123813121043707 -0.21206311101858887902 -0.10034452264260668164 0.93469580752741865393 0.45698190543076255832 -0.10929021551647899457 -0.19831490353942210492 -0.088183566330704982184 -0.77324316925581049187 0.18683325929457594849 -0.12533185957552511747 1.2627422530982597149 0.095549438638390840617 -0.4077634930874615149 0.51900799614308779084 0.24123635182972433255 0.29212502614473040419 0.23182000001962457802 -0.017566544172678961316 -0.38200437609171772335;-0.77982870616810662234 -0.74879897385541460686 0.43667657112804136865 0.32958173930351220005 -0.18920783649228251067 -0.33322832137371422023 0.30995183867189790572 -0.71871812994128281282 0.84703986320078605843 0.49286082796458319244 0.23798409199489678478 0.01833268349097357322 -0.93615793209113007389 0.6721202407881726737 -0.89647455134025400003 0.66153259943643449859 -0.67084725986554416544 -0.87780022914062727502 -0.53045531698933767739 0.81916644118711168243;0.15408381953339828074 0.55648418568061763789 -0.12399647034341534924 -0.5452433118019606173 0.47954641386388485724 0.74105183914944217083 0.78933546134800214311 0.17052351762101156107 0.15725550150495096191 0.38596201748020231292 0.71879880220406888736 -0.10110291761510215025 0.66075331189797459341 -0.19645121278180655011 -0.72333745515715264229 0.079043945437932361386 -0.2053178560580939116 -0.73172555715889830985 0.28633749513509043627 0.0017496747207359250424];

% Output 1
y1_step1.ymin = -1;
y1_step1.gain = [0.0435709569938941;0.115653483847616;0.0750602147347893;0.0636127574787141];
y1_step1.xoffset = [149.917430024246;167.20753845202;165.067701634408;166.415879077873];

% ===== SIMULATION ========

% Format Input Arguments
isCellX = iscell(X);
if ~isCellX
  X = {X};
end

% Dimensions
TS = size(X,2); % timesteps
if ~isempty(X)
  Q = size(X{1},2); % samples/series
else
  Q = 0;
end

% Allocate Outputs
Y = cell(1,TS);

% Time loop
for ts=1:TS

    % Input 1
    Xp1 = mapminmax_apply(X{1,ts},x1_step1);
    
    % Layer 1
    a1 = tansig_apply(repmat(b1,1,Q) + IW1_1*Xp1);
    
    % Layer 2
    a2 = tansig_apply(repmat(b2,1,Q) + LW2_1*a1);
    
    % Layer 3
    a3 = tansig_apply(repmat(b3,1,Q) + LW3_2*a2);
    
    % Layer 4
    a4 = tansig_apply(repmat(b4,1,Q) + LW4_3*a3);
    
    % Layer 5
    a5 = repmat(b5,1,Q) + LW5_4*a4;
    
    % Output 1
    Y{1,ts} = mapminmax_reverse(a5,y1_step1);
end

% Final Delay States
Xf = cell(1,0);
Af = cell(5,0);

% Format Output Arguments
if ~isCellX
  Y = cell2mat(Y);
end
end

% ===== MODULE FUNCTIONS ========

% Map Minimum and Maximum Input Processing Function
function y = mapminmax_apply(x,settings)
  y = bsxfun(@minus,x,settings.xoffset);
  y = bsxfun(@times,y,settings.gain);
  y = bsxfun(@plus,y,settings.ymin);
end

% Sigmoid Symmetric Transfer Function
function a = tansig_apply(n,~)
  a = 2 ./ (1 + exp(-2*n)) - 1;
end

% Map Minimum and Maximum Output Reverse-Processing Function
function x = mapminmax_reverse(y,settings)
  x = bsxfun(@minus,y,settings.ymin);
  x = bsxfun(@rdivide,x,settings.gain);
  x = bsxfun(@plus,x,settings.xoffset);
end
