function [Y,Xf,Af] = nnmove_00(X,~,~)
%NNMOVE_00 neural network simulation function.
%
% Auto-generated by MATLAB, 26-Jun-2022 00:31:46.
% 
% [Y] = nnmove_00(X,~,~) takes these arguments:
% 
%   X = 1xTS cell, 1 inputs over TS timesteps
%   Each X{1,ts} = 6xQ matrix, input #1 at timestep ts.
% 
% and returns:
%   Y = 1xTS cell of 1 outputs over TS timesteps.
%   Each Y{1,ts} = 2xQ matrix, output #1 at timestep ts.
% 
% where Q is number of samples (or series) and TS is the number of timesteps.

%#ok<*RPMT0>

% ===== NEURAL NETWORK CONSTANTS =====

% Input 1
x1_step1.xoffset = [-2.14176009391765;-2.93543929307278;-1.8561936087052;-2.57890731985373;-1.54345157753531;-12.2663909617541];
x1_step1.gain = [0.522374734117766;0.298150665874942;0.578276914781939;0.499353559330748;0.648899015595415;0.0914060631117237];
x1_step1.ymin = -1;

% Layer 1
b1 = [2.3065685614188917718;2.0637718707432188836;-1.8209751800675462174;-1.5781784893918731072;1.3353817987162006631;-1.0925851080405275528;-0.84978841736485477565;0.60699172668918199847;0.36419503601350922128;-0.12139834533783640247;-0.12139834533783640247;-0.36419503601350922128;-0.60699172668918199847;-0.84978841736485477565;-1.0925851080405275528;-1.3353817987162006631;1.5781784893918731072;-1.8209751800675462174;2.0637718707432188836;2.3065685614188917718];
IW1_1 = [-1.7855539171189864778 -0.65517315175192603061 -0.21040129124892043011 0.42330576828589860927 -0.74955319413814291973 0.95787129153372485568;-1.011677158270537058 1.6280842454907331618 0.66554682595259406774 0.031967550813881945304 -0.90818280643646331907 0.61427927996727771376;1.0000199496888289019 -0.26553043263397690943 -1.1891194781572447248 -1.2634418088686520942 -1.0239917270782423753 -0.43687849940303713492;1.0495836922644414813 1.293118356600283958 -1.2933499264139389773 0.87264190434379851347 -0.24209051178112575564 0.23154216897960439026;-1.1378804465198761875 -1.808467786555395973 0.82932063981573411748 -0.14553501862999573824 0.20503332882303104689 -0.062761865371464636842;0.042738766154590310253 -0.42539404511915512863 1.5191977613498002242 -0.41261620485903205413 -0.90698778906169574832 -1.3552236024587318575;1.4889553075363175516 -0.05068059427157349528 0.83765169554842111577 1.1310192314638320976 -1.0061874927130685098 -0.32775594969631277609;-1.9024164102759204553 -0.20964481598571998999 -0.57923722352983220141 0.25866382580558910931 -0.5021282278772299934 1.001281123578762422;-0.13668653647465489609 -0.033678659999134885616 -0.047171049959300208332 0.76788028519777262737 -1.4604961579488526802 -1.6048447898162006009;0.87577048494248377342 0.39501251358514932743 0.12838619776673215744 1.5691968552049795349 -0.64738927257341372101 1.2244488735490088871;-0.74713283769189064998 1.1033405423514481836 0.16045933219740354803 0.062627946793285829696 -1.5660899125039244861 -1.030719956106780355;-0.60662009214011947122 -1.0788227642629582004 1.0246627762328386346 0.78540576454294686037 1.0683643757918235284 0.99005736006073219446;-0.51470395787916867203 -0.70795762286789487572 -1.1191601444881551508 1.0332850434984506283 -1.0824585563879876027 -1.030640787115892687;-1.9553220553099877055 -0.02395145195511525979 1.0962787356744678746 -0.17227458300273165714 -0.07657387923603403701 -0.50895123466944613977;-1.0416192891490458905 -0.87446107975022557834 -0.074527422890798722399 -0.85736916297161391842 -1.554417111467606416 -0.56014000946195030561;-0.9583102427026233272 0.20891084037757937097 -0.60761320146615893645 -0.15746677964842220598 -1.4735748932940848643 -1.3389711395674350758;1.5628729068280793335 -1.108960279725762943 -0.43443129177034350841 -0.94364870681136769903 0.034543042147458173641 0.7533241352316454309;-1.4634909098590016541 -0.58934670436603875388 0.89120806551358733305 -0.017749263055526411093 -0.04888037215781815964 -1.4262423371156829344;0.90682449880605675574 -0.097291838641730174486 1.5200587857131078184 1.1479859622763439742 -0.1609369523497479193 -0.91329675943041421782;0.57618005668009419917 -0.45346764106954934315 1.214640627452563848 -0.23646030669984796635 1.5323132137132671193 0.95046991214332110509];

% Layer 2
b2 = [-1.5708258360227485007;1.2217534280176931549;-0.87268102001263814227;0.52360861200758279654;-0.1745362040025275896;0.1745362040025275896;0.52360861200758279654;-0.87268102001263814227;1.2217534280176931549;-1.5708258360227485007];
LW2_1 = [0.33625567538161749148 -0.051323694447251565209 0.051964856766301879831 0.11033070425228058697 0.12614871330378915615 -0.54886779786556116889 -0.48878052238400104823 0.39316184187958452823 0.40410680434722001664 0.47077845986697597347 -0.29551738957506795691 0.39098029089002855896 -0.23943831086271843978 -0.05866320076337405709 -0.3315247016217059417 -0.19926371471168299876 -0.55400931394465713353 -0.56611818419539661207 0.28033644612666624996 -0.29110899883888130546;-0.26737214989814717114 0.23517497046004709471 0.3684389816587259614 0.020997918846959943984 -0.3903246792112107233 -0.3640054757351027237 0.40896857975441525124 0.31667899923882186775 0.24601822522713390207 0.081306688087440126544 -0.3812494034485919836 0.45448368783242137914 0.27609394559232774968 0.24860787666602937596 -0.26782913462461938048 -0.31822156536348222833 0.43573437127229541765 -0.54849750957336296242 -0.50190637170523177968 0.42357862842690680028;0.40557939908222007119 -0.15928953676454146726 -0.081022391878559904543 0.45842464777043978597 -0.4756990648469882621 0.33370816550431653402 0.24117707775236443823 -0.52021686115040388643 0.32992366374173870414 0.24498229003506327706 -0.2450039216353795124 -0.50098569587197772091 0.49306776751449921115 -0.07794024319226976194 0.43589785700688432613 0.086656962230615031118 -0.26417156180945383648 0.36327428038875608785 0.4765659378475650132 -0.19750744132591893654;-0.27835164471348827764 -0.58572981465396201095 0.4956104268649802469 -0.32678589079833314512 0.046876503528423776879 -0.38897494975716490062 0.35790460827179298997 -0.1329090771923127634 -0.62261362878958215195 0.26865406914083611589 -0.15545405819206467579 -0.29119082178922855997 -0.48707585841782730096 0.2054668575822691523 0.44855253298637937087 0.32478234027440611165 0.1836642564168718128 -0.068924024254540222634 0.39434637942332667615 -0.21527001539550702502;0.14073534163099615801 -0.20329606790237961245 -0.3262772512638929534 0.4464573371966567561 -0.36492963019959939741 0.52365591009790013466 -0.39233622201243578687 -0.56446440766837246983 0.34596039546119283781 0.17291515137589605344 0.29749607133959360405 -0.1927068073098955614 0.45094346530334611378 -0.067519790358243111927 0.5266075125179567884 0.44495641576409611373 -0.41641690181890250733 0.077650750323662851016 0.23582169994884116804 0.16479356708186146396;0.47265030638020583131 -0.5349816709677813753 -0.49043174451061216645 0.12570164088030630345 -0.18666549697210654823 -0.22632787801369688707 0.5100375560423424659 -0.45541504566717544433 -0.30069870300939510743 0.31213009693980287018 -0.32797735042676018358 -0.50698366392879345987 -0.15315944351227983589 0.066061708096714563676 0.47682897611075775179 0.24782009699426635341 0.17761928166804105689 -0.18817898031553639826 -0.099165650838513114129 -0.44957038699599505271;0.22537892730412412146 -0.10944361272699132392 -0.61926874792248565171 0.42276179515915673912 0.30858802807548901814 -0.46881129904992319135 -0.19903747011458364224 -0.57070466471846037493 -0.35392570191625954967 0.12211448552610257301 0.6254240551276731841 -0.0019315626359682309347 0.17518981444572614969 0.12330817465281082579 0.17524968100340507227 0.58050999500610234172 0.16976024124472643972 -0.12323962614887883082 -0.075749043261073775724 0.40925434145275652043;-0.040038509837227939658 -0.52993068530622466916 0.13818772201410997602 -0.14865028730986953875 0.47761369443033063753 -0.37066674898885859646 0.41460360285364561417 0.42274195000117414933 0.44572643009738455167 -0.38544837873243198434 -0.40295974350351720927 -0.11213099211851149106 -0.17481682956375632632 -0.19006764188547306538 -0.033803353712815897847 -0.058316636413025070562 -0.32208825047734346292 0.53156303773985480454 -0.55498613817228314993 -0.37419726228694927261;0.071467221796991248217 0.22261922462713085169 0.11809256623561280308 -0.22838864155283908342 0.33519839494238984345 -0.38814774424088865912 -0.1012663952125425898 -0.47281446681178773694 0.2646700761408818936 0.3052259408563136045 -0.38963388370212426182 0.34412318841455402652 0.49490444123826288214 -0.58453528397381371295 -0.12795487354164847282 0.25045821568258747059 0.28891743215719756233 -0.49379756631557714108 0.42351352403789921386 0.4940237930651004139;-0.20139398907620659207 -0.47917391363777817048 0.30996192278963802247 0.37189284992190385637 0.46575747446760829007 -0.42513824644786446516 0.50237309732355117653 -0.47105158029239707629 0.41015897370562248714 0.2007941310577778804 -0.32562009379368461737 0.42797269446098623602 -0.18657816983301600544 -0.014474179935203220632 -0.14957945469339903322 -0.042135073535776973452 0.25914028009246004025 0.33178429800437037045 -0.37992120936359474737 0.46100152554232626256];

% Layer 3
b3 = [1.8889959867429886309;-1.690154303927936974;-1.4913126211128857612;1.2924709382978341043;-1.0936292554827828916;-0.89478757266773145673;-0.6959458898526800219;-0.49710420703762858707;0.29826252422257715224;0.099420841407525717415;0.099420841407525717415;0.29826252422257715224;0.49710420703762858707;-0.6959458898526800219;0.89478757266773145673;1.0936292554827828916;-1.2924709382978341043;1.4913126211128857612;-1.690154303927936974;-1.8889959867429886309];
LW3_2 = [-0.10741368149008491406 0.21015938969316419471 -0.55130415801007337517 1.0000065735213266027 -0.6988299896371883424 -0.90496026507604776512 0.14146571675829544557 -0.79290151709524914203 -0.18414498516332719613 0.46767571241736360932;0.98083643987042512524 -0.28559877726011145826 -0.29392774191647058624 -0.16806308934948249734 -0.2744718567060615011 -1.0095728645487132003 -0.79661825226686688861 -0.60724948198375838793 -0.54549601231686406511 -0.12070498534244478162;0.19153205993443339628 -0.73861620428598950827 -0.7719557000632094601 0.62121130268601632007 -0.7783244561073260348 0.22851559744959215603 -0.51665063868736493813 0.59679766109036636035 -0.82330418952308070946 -0.21287289351124469294;-0.0010320624006303351534 -0.37710019656939025579 -0.81985593840120163378 -0.099087973780582150329 0.83974610168787566788 -0.84385098993690954572 0.36118931017080396773 -0.47296724041890292334 0.96637619068017899249 -0.19703134147600961934;0.55116257909194543707 0.68829847396550669636 -0.47169450540725044174 -0.80990628815560850029 0.3307911381675112672 -0.82786593341597980444 -0.17264594872166905137 -0.59588659969934554272 -0.64573243188918760804 -0.56185793608843415115;0.90629440547403983253 0.22670752732214224934 -0.74196298482446410016 -0.35304288941541922542 -1.0318759961242767176 0.93949947332408223488 -0.11820623769121473001 0.15901295432198433999 -0.18341386302588677526 0.0081130636350331703649;0.37720809317584225173 0.73788101665578342825 -0.44970918464041276241 -0.47453729319105530937 0.40107244254370266745 -0.81404474399269521889 0.58207116168831918301 -0.70267729592353356249 0.81875410106698920387 0.35732206393397314415;0.78638574999887311812 -0.45906741524727751047 0.86037016200664739873 0.63704534795902578725 0.018101533597329830944 -0.54011097877441915927 0.59072816247681603219 0.83233278182325820538 0.0684798941065248995 -0.50460098584076662487;-0.775686911943197277 0.69498355679139867114 0.68511183747230930408 -0.11896274276157643712 0.27448371405383947819 -0.928951705481761425 -0.051277959081564225552 -0.24290826533455955882 0.4653644215353179292 -0.8852076957788493905;-0.44949990805131073701 -0.52948463824799829602 -0.63851321770262947641 0.14427668877241525691 0.17733989823219861726 0.72610243587130574028 -0.64050992050909616449 0.44945622958707165395 -0.59712058583114624444 -1.0629655473516028685;0.63172707884695966651 0.52780302107303211923 0.37092306135395286537 0.027022949242130379216 -0.86734502545887282032 -0.18991349136611632153 -0.8133238206866890696 0.8022636076039891817 0.2088338640994135964 -0.78437740019131052538;0.70852376638583292046 -0.7276816152339272703 0.79080332880698334108 0.33221447616438504191 0.27039538106433685938 -0.8064152263953804356 -0.20604204616531257566 0.75316302468873463916 0.46879580998952602444 0.49814300833140512381;0.32811769395373485692 0.15409624898839532903 0.42863422946985496598 -0.47648637155559525613 -0.1315129397215893392 -0.98199982426930454427 0.92052265235015195977 0.32904941798244052853 -0.85669662825720649391 0.5957755482823267057;-0.86041009543890556444 0.079889365612954940654 -0.46949281964349526275 0.14226958217270932461 -0.26469861639335728887 -0.64261879346119954448 0.92258815237374114382 0.24651758446237814759 -1.0615055666974133608 0.2433016552394406673;0.62724107977846255135 0.14879044890187828609 0.80498933683685891527 0.3711390182249212355 -0.88327489864155961374 -0.13044495400030944876 -0.69984083341702207903 -0.64124279541158712981 -0.17542634277230109707 -0.7987800170867285221;1.28010823253555861 0.57844762025192075772 0.26815052619507995235 0.28240687101470485221 -0.17749849888078558791 0.28850215321409883318 -0.6795918391869769648 -0.28732897810173280151 -0.18678456766725670679 -0.86564314950007437144;-0.4374242490062338895 0.30283016836706500019 -0.9632019377081881828 0.99749887495336375665 -0.87257977216412108135 0.45742174463525492323 -0.60003917423934816089 -0.17500917670723223352 -0.033333198642771691422 0.0090188225783107180134;0.69541905305695761452 0.14510082679459751498 -0.004960885326236718143 -0.94608836236663407249 -0.6747709053096472287 0.29743595795875371612 0.14844091918719010126 1.1032698975395176522 -0.58249422050361965297 0.21497328877292909421;-0.24128690151203252556 -0.50003669157671437606 1.0479809099761123736 -0.76211143472958253753 -0.5268932301681493735 -0.13209829828571478805 0.19605151880748733495 0.80154065170893151748 0.20228337668564436158 0.75105481443624078075;-0.4192872839900169124 -0.2243399416481320352 0.9250216301950650033 0.10924348306584318047 -1.0915036581799621995 0.11746120679720092883 -0.43915149885522247741 -0.86039572684547382941 -0.57273664096497611808 0.090757757401417019083];

% Layer 4
b4 = [-0.77846719168107769704;-0.23170298823366142216];
LW4_3 = [-0.0040551867285891773918 0.036258148398611300678 -0.66198076669051730825 -0.86561091629152575599 0.13605550346405981266 -0.42213319310967634124 0.51458991295389688858 0.34704731177768155526 0.88739157133303314673 0.66058019530447986689 -0.32546035081842372705 0.74010141226898418232 -0.56270756006523803272 -0.18533284560289775555 -0.73064784027253892873 -0.69708252790800551146 0.73315626812948764268 -0.0055728393528717834471 -0.0649924336678184833 0.92400115405030280868;-0.97381594343972865957 -0.4712669123464241494 -0.22630389213557289274 0.36530342986523423043 -0.32569337382236929201 0.096984485168886802597 -0.82569327074093767926 -0.92506615956857474181 -0.91442034792340676219 0.071665483131229335001 0.22477147339076641863 -0.90354722266259579477 0.9880609639060027316 -0.49653652769558132007 -0.34802266551419624996 -0.59366298695220076631 0.53923195503319698574 -0.94032524533165617875 -0.079961682412982071355 -0.69147160194839862868];

% Output 1
y1_step1.ymin = -1;
y1_step1.gain = [0.220818796095921;0.153261663239194];
y1_step1.xoffset = [0.0999999999999996;0.651751060429343];

% ===== SIMULATION ========

% Format Input Arguments
isCellX = iscell(X);
if ~isCellX
  X = {X};
end

% Dimensions
TS = size(X,2); % timesteps
if ~isempty(X)
  Q = size(X{1},2); % samples/series
else
  Q = 0;
end

% Allocate Outputs
Y = cell(1,TS);

% Time loop
for ts=1:TS

    % Input 1
    Xp1 = mapminmax_apply(X{1,ts},x1_step1);
    
    % Layer 1
    a1 = tansig_apply(repmat(b1,1,Q) + IW1_1*Xp1);
    
    % Layer 2
    a2 = tansig_apply(repmat(b2,1,Q) + LW2_1*a1);
    
    % Layer 3
    a3 = tansig_apply(repmat(b3,1,Q) + LW3_2*a2);
    
    % Layer 4
    a4 = repmat(b4,1,Q) + LW4_3*a3;
    
    % Output 1
    Y{1,ts} = mapminmax_reverse(a4,y1_step1);
end

% Final Delay States
Xf = cell(1,0);
Af = cell(4,0);

% Format Output Arguments
if ~isCellX
  Y = cell2mat(Y);
end
end

% ===== MODULE FUNCTIONS ========

% Map Minimum and Maximum Input Processing Function
function y = mapminmax_apply(x,settings)
  y = bsxfun(@minus,x,settings.xoffset);
  y = bsxfun(@times,y,settings.gain);
  y = bsxfun(@plus,y,settings.ymin);
end

% Sigmoid Symmetric Transfer Function
function a = tansig_apply(n,~)
  a = 2 ./ (1 + exp(-2*n)) - 1;
end

% Map Minimum and Maximum Output Reverse-Processing Function
function x = mapminmax_reverse(y,settings)
  x = bsxfun(@minus,y,settings.ymin);
  x = bsxfun(@rdivide,x,settings.gain);
  x = bsxfun(@plus,x,settings.xoffset);
end
