function [Y,Xf,Af] = nnmove_00(X,~,~)
%NNMOVE_00 neural network simulation function.
%
% Auto-generated by MATLAB, 29-Jun-2022 03:08:56.
% 
% [Y] = nnmove_00(X,~,~) takes these arguments:
% 
%   X = 1xTS cell, 1 inputs over TS timesteps
%   Each X{1,ts} = 6xQ matrix, input #1 at timestep ts.
% 
% and returns:
%   Y = 1xTS cell of 1 outputs over TS timesteps.
%   Each Y{1,ts} = 2xQ matrix, output #1 at timestep ts.
% 
% where Q is number of samples (or series) and TS is the number of timesteps.

%#ok<*RPMT0>

% ===== NEURAL NETWORK CONSTANTS =====

% Input 1
x1_step1.xoffset = [-1.40432655203162;-3.05772726649525;-1.50337830487775;-1.46639144081691;-1.47317076330138;-9.39260604806797];
x1_step1.gain = [0.701215936936036;0.342040821094694;0.707661234476445;0.774842031884718;0.660834644460766;0.119048524684758];
x1_step1.ymin = -1;

% Layer 1
b1 = [2.3065685614188917718;-2.0637718707432188836;1.8209751800675462174;-1.5781784893918731072;1.3353817987162006631;1.0925851080405275528;-0.84978841736485477565;-0.60699172668918199847;0.36419503601350922128;0.12139834533783640247;-0.12139834533783640247;-0.36419503601350922128;0.60699172668918199847;-0.84978841736485477565;1.0925851080405275528;-1.3353817987162006631;1.5781784893918731072;-1.8209751800675462174;2.0637718707432188836;2.3065685614188917718];
IW1_1 = [-1.0280989867545122785 -0.54431266824995916398 -0.87579785388051234474 0.8952138153852773339 -1.192366719272794473 -0.98834542129522051646;1.005382608156474511 -1.2203427629679366451 -0.31480865009709796398 1.06875414990756612 -0.71245335520807762109 1.0350353511578407328;-1.0357042072285418399 0.67246866329119070471 -0.30181308284849922563 -0.63281448705276110989 1.4492202861372631695 1.0970763286081506305;0.67377209999366971527 0.98290839075180858053 -0.1808131161624935701 -0.8046476666693773705 -0.54215753726659809963 1.7105831565632751978;-0.74255499976033023657 0.9948547032313923566 1.4122623843369375152 0.80141659750124727424 0.24851637440906074183 -1.0395290890602235656;-1.646947755149319903 -0.96229838848475546254 0.42711015160965765114 -0.02664304711412110796 0.14695296386588907467 1.2153498774829225582;0.50062987803067171555 1.7279109686854350336 -1.0521231077963144607 0.18471482309151882051 0.57234459202099641217 -0.78440487390198387896;1.2415557278254973905 1.3460763745809039005 -0.039687441331758367691 0.13189915700713267244 -1.3953458001130427668 0.030231019054682749247;-1.1311596575089650774 -0.56429316682378949377 -0.67450425167403005311 -1.2689255013193008192 -0.43002651413583536932 -1.2133667472539355625;-0.22975298480052427919 -1.3201118734960488599 -0.5282876074718370063 -1.0643637019869409688 -1.2542649064834840988 -0.73460083991534619319;-0.44877656961529727164 1.1013883280037088941 -1.0210787819320414904 0.19213206429935417163 1.1420077549901357372 -1.2337356072214888947;-1.0518127885516883602 1.3165163432650592856 1.1228869947269790597 -0.19013054120001285363 1.0304077677244092293 -0.34923933179173405339;0.91145638322417410482 0.16996857064115483693 -1.1400388744197318402 -1.0812206344882768771 -0.98314518357728919451 1.012578553682361493;-1.0786434847293309147 0.32151579961978654643 0.22887386795667610806 1.0369588851511739591 1.5682822115944468067 0.68281643202316488761;1.0287735231513874812 1.043701032581114907 -0.63139473957769998158 -0.56448867634577881702 0.72064284548093959781 -1.3913801879953389129;-0.21053983839202258799 1.5103466654135324632 -1.1137528569750230201 -0.52584980954825699673 0.23339215170661092857 -1.1930419565756671396;0.97851731793142582294 0.22788825300916201733 -1.8401276603586667058 -0.70845289792262966522 -0.64285473626060907204 0.097937757019481527787;-0.97157046602996810503 -1.2661364759019628767 -1.0345222267831080121 -1.2798131196073105897 0.021962532997834040976 -0.25410149698875855728;1.2447374955353118775 -0.34308495145688255867 -0.58217685088306470043 1.0982603489936832997 -0.87888991681244921228 -1.1556931452889567247;1.0174965693215722862 0.33408911081343950489 -1.054489082903920405 0.37838867038047729885 -1.3983616979061439523 0.98122529317885087696];

% Layer 2
b2 = [-1.5708258360227485007;1.2217534280176931549;0.87268102001263814227;-0.52360861200758279654;-0.1745362040025275896;0.1745362040025275896;-0.52360861200758279654;0.87268102001263814227;-1.2217534280176931549;1.5708258360227485007];
LW2_1 = [0.25543016013335601011 0.15113040119672244144 -0.25077994271355175115 -0.3399991728293029758 -0.40038127044597865423 -0.32520269348354435834 -0.34594280035109864491 0.33985456192188756575 -0.40416848012501438436 0.57046951427324099626 -0.16455083800447603548 0.51070455021731020473 -0.32624298260647310865 0.081852074272482408523 -0.48363811887712793158 -0.42085266540857452222 0.14054718230365598197 -0.31026781493176464055 -0.16411113864517598571 -0.50585220087013837986;-0.41796258196495095216 -0.075204692721497032326 0.56134183241792268149 -0.067360396374569628253 0.54005198341308457977 0.36884573912452939259 0.035976469697692213534 -0.46492286437956137357 0.06612969808694241225 0.33591554490462766092 -0.17619543461007497465 0.57797730219783216565 0.32693730558476297166 0.044900100584957747252 -0.31118719279641177122 0.43883918631731105853 -0.37574799256213198273 0.54108286992349474698 0.023552448579673593981 0.084877069358871945481;-0.17888622658572878033 0.27314519073421184014 0.47905515442571700024 0.43549851272054901363 -0.53396668623906129447 -0.38614433612142184948 -0.16553674749884794704 0.42433574654781563984 0.42432226454083882272 -0.2961084634491609191 0.051043780118745440966 -0.32573814653827815047 -0.31573456906461561111 -0.2076398920165627715 -0.295055114463097512 -0.27389702385935593698 0.019014796347783188141 -0.51814752601819646927 0.40938149979629157027 0.42695378294780561568;0.00812530267030119914 0.37072399608613942901 0.38441811100896983167 -0.14713786487264313152 -0.16244990167069922604 0.11002054724891130455 0.31852900952853652194 -0.092760787646670242457 -0.49476572732565110568 -0.5190777140957052449 -0.43418958755633851876 -0.52076276221764061791 -0.16277841502176024213 0.36987270614404760272 -0.46366391448003752007 0.41015892437186041164 0.2395349133720926782 -0.18958706392629645632 0.44710552879175713414 0.44532555607299340039;0.019467726852211476168 -0.39862827227865788027 0.48666510218798436638 -0.45060810454380079149 0.17214174259983233695 0.21714525103198023537 0.27590010433876227536 -0.5599235970044492694 0.33276119907216250571 0.44696735618434274562 -0.13131071922804138374 -0.37610857039027018045 -0.15527275105044624492 0.53061656342038854284 -0.52475716026885188548 -0.20454539203913810197 -0.059818535189101164351 0.36647243480684166261 0.31871461066273260032 -0.265250501067430422;0.11848598687613760838 0.47292767442564698221 0.47719660330180041496 0.33990376723244991597 0.51591066225571124981 -0.14950996608567054813 0.46564389052190502394 0.1172327840791359127 0.033697739422306555168 -0.41880073059075256792 -0.44299151060763869436 0.21787695816439078822 0.21980840819360072946 0.34699085217681857607 0.36721154423176305404 -0.28389975260611821639 -0.42449054221788329322 0.28113616403776275909 -0.48678287554826421557 0.25858805111948818256;-0.21285093333934221316 -0.11408545576443064606 0.075930610973154719079 0.083807609785910314182 -0.10370473949597186492 0.57065427596840578861 0.05688095193650914011 0.61633097091446986671 0.019626305681369297929 -0.062676550554235363477 -0.30517875666563437642 -0.30392111817466377355 0.32397501671121337052 0.35912613828220513179 -0.53770131246828312133 -0.1477761591799267582 -0.29017463582608332695 -0.52378950359749676391 0.52477967475541364983 -0.55518043707206976567;0.41644734911271663602 0.24726602451178744668 -0.31059897335841013533 -0.33268507597974539269 -0.16004464038780566448 -0.33174384513645416295 -0.049707947907803036458 0.092237328636269017013 0.42475659140868388119 0.41596212044745384251 0.49819370472710067244 0.22007964785583716827 0.091233225540701679002 -0.18361487019249164709 0.11466526424271270002 0.32136935928859911016 -0.23140119106942882987 -0.62036152820738110769 0.66014067676799170759 -0.44317868481781103052;-0.48502283905580206858 0.27555706296853632598 0.0042498449808576650721 -0.17487710270605297258 -0.17354442358822436132 0.21867158604265432564 -0.042918557110351057693 0.35499312466690174928 -0.15313464099171439359 -0.22106981020535554361 -0.18938393466489264472 -0.48425590359286507791 0.4329985500268078713 0.60974552091306144508 0.3746785933026033355 -0.61748536942285980889 -0.11256916702089798943 -0.48577398543371125283 0.40306063329138214213 -0.29183913387931426087;0.21100880471789232318 -0.27993953207673788475 -0.41495520075009340033 -0.00050906977964272192433 -0.17772404390026738663 -0.17394583661495827132 -0.41722351894140130568 -0.087417018430725315636 -0.17950314818004209361 0.57346480540291344674 0.57100150586096554139 -0.55516188851300940499 -0.45780109148641390249 0.30576688117538036726 -0.40310941381987674959 0.53468397609279483262 -0.23612797673994267988 -0.2286820382361873516 -0.24302871675003595575 -0.12226914966614856051];

% Layer 3
b3 = [-1.8889959867429886309;1.690154303927936974;1.4913126211128857612;-1.2924709382978341043;-1.0936292554827828916;-0.89478757266773145673;0.6959458898526800219;0.49710420703762858707;-0.29826252422257715224;0.099420841407525717415;-0.099420841407525717415;-0.29826252422257715224;0.49710420703762858707;0.6959458898526800219;-0.89478757266773145673;1.0936292554827828916;1.2924709382978341043;-1.4913126211128857612;1.690154303927936974;1.8889959867429886309];
LW3_2 = [0.24821639991289737304 0.76862760460112278249 0.85767646404759034784 -0.28041146836059893666 0.38216864569964831277 0.037148812175281507864 -0.85060312312415531366 -0.51921023151524059447 0.7190164371776850416 -0.66644134858883652406;-0.21767877563437401656 -0.15937282929699569944 -0.59435378302801311623 -0.61002948445541782529 0.86400276973765000044 0.4439361755990528513 0.20393487166783805242 -0.60131331019262668214 1.0565220355579432177 0.55420541670965239867;-0.042159658176080444525 -0.026060885329331980736 0.87948040020238171799 -0.008172667911666072274 1.3207286082580966813 0.59805915686515886964 0.17857985181311064604 -0.70584623322750739138 -0.35305394791744360017 -0.1885234579879351835;0.79437672450525498302 0.21810859314228511763 0.28810770255144391161 -0.41009789591852779944 0.13663081470667270967 -1.0847645127617164817 0.92700037642434529594 -0.25232140522700968743 0.35717541612238479232 0.62654742167154031662;0.61210416110066656614 0.24852368824087564536 -0.46227910966004742699 -1.0383711688750070223 0.39581716251557030883 0.49979429415324233554 0.056973053126260900236 -0.18069077271911093696 -0.6290189211662347013 1.0009636360902818275;0.8246024383800180102 0.55576428514128795033 0.1434180789469615136 -0.42083003281815528629 -0.85554643966797916388 -0.34830513887045594368 0.6552684480120490873 -0.13609533763107628523 0.96992857734219972698 -0.373978273162292707;-1.0143210528128112635 0.099927115780900202524 -0.27459534553503078813 0.80054038407064576077 0.90504972858852217321 -0.60074579814893325214 -0.37696297571446185648 -0.68927433844034013966 -0.12509161047726027882 -0.018629708817799905951;-0.87996716416958287166 0.67518515559042491248 -0.62980204878122780787 -0.39821590103440163144 0.31897950011112358171 -0.75461534403454311182 -0.64402910570752081032 -0.82591686204566994167 0.043816680251627541931 0.11330408941224713593;0.22097810145759658185 0.76075763663974249607 -0.83200444497723757831 -0.13440182171771392072 -0.32801391900982912464 0.66820684708458288892 1.1478775979227791026 0.51850351197942123882 0.021333978372599583101 -0.29901430872557571705;-0.51742905372078862314 0.49536298176824000716 -0.85206014584843736692 0.8521634120274433899 -0.083003948652721079582 0.3915684994298543331 -0.81500233190538229344 -0.53569231084942769971 -0.47294514407633070352 0.51760201718251364067;-1.0132554603540446791 -0.061889014371138584281 0.3271920233823688573 -0.2938751723957835349 -0.89580223362469157955 0.67360110494691838312 -0.6860111424913812872 -0.21249727358165415581 -0.60120281418134102758 0.45930428883701207576;-0.43455135765977764839 -0.21632214327262561104 0.7919994906651314226 -0.96297043672649740298 -0.62575756434635088077 -0.50106596140030768005 -0.35528787854136811841 -0.30199767446434000462 0.56996466596326467169 0.77017466273336143701;0.81254010707467005936 -0.91512768154883228355 -0.19423304842084543331 0.72018063453503089466 0.65665314028293542137 -0.39700304024363763933 0.76447090458245647859 -0.49860521551969216869 0.095865860130992755495 -0.28848079085058697668;0.084945382894788534767 0.96355017315336854988 0.57345388273019715086 0.906265840725611449 0.20770261488021005136 -0.78746902822117692544 0.31935118140573925949 0.032909734644935316472 0.43073960051638288116 -0.72845135472405753152;-0.60934009177668846391 0.85312816861109752598 0.42824039825475684884 -0.043013341781633927796 0.3158973488858510259 -0.4363323688577628312 0.58642246508599360499 -0.76518374238864572678 -1.0302276598774964267 0.054765524211193884752;0.85707414594179831546 -0.38806620925583540371 0.19398746648554812677 0.80755034085495658314 -0.096100657061681957205 1.1941356848720159345 0.40688303414533583124 -0.45164141300511045918 -0.42235738029886821243 0.10124612127230912806;0.93295676477484501543 -0.17707003774435026155 0.18421162684404088217 -0.1643572677974019236 0.78817941268324531734 -0.89174850473962297137 0.01098524589465769627 0.8513517769705994942 0.40838424503430453827 -0.54539534479968654335;-1.0892637877582336259 -0.73365618963817602616 -0.02464314626415874121 -0.042395251308836534587 0.69384690583142194509 -0.57959944541799912621 0.17897719192263222832 0.4421574367780346515 0.32361937087479447639 -0.83158259651777188814;0.74935995022522638997 -0.90600952111059551708 -0.51414126440992391487 0.11067273294869631184 0.20751686027477689311 -0.89444429687861515266 -0.56217046404544201987 -0.75098524217294770899 0.43098375631995355928 -0.021615889153052084137;0.81029751729556287465 -0.024488109004692091425 -0.31200100418843107475 -0.901479413033117849 -0.12987948246883926351 0.092955229288585475289 0.44690007446094315302 0.86976731416874342173 0.40619277240575085708 -0.92433628342360951713];

% Layer 4
b4 = [-0.9363164337144804783;0.34943088506974251395];
LW4_3 = [0.27371185841443690379 -0.37022770018288886362 -0.45372734861845320786 -0.47284205870533213556 0.51410985602545578033 0.92720564774090785676 0.28963528030943086478 0.65700742394835898175 0.061005123378976566784 -0.97826089995002063482 0.1982042539029387207 -0.039134989686635979211 0.94294280544903363861 -0.19683894371299825998 -0.78337724930981145199 0.70558045387190815312 -0.18406994381299912611 -0.29438176516498693047 0.79781391449866800869 0.63066254006891475647;-0.97472981425305071923 0.73742468962327234472 -0.090709565230238764499 0.40876449246519719338 0.41169634782216912861 0.42314690577361879775 -0.67073344725593164739 0.64576969253314775443 -0.61853635083474833856 0.96067236843311243355 0.63919194637328691222 -0.89818417650936166474 -0.36768227113243701076 -0.98004964068731337257 0.15728198124977499361 -0.033715876917263631896 -0.58387240411642604698 0.38579328607840523979 -0.7816362946920314414 -0.49735699262024390954];

% Output 1
y1_step1.ymin = -1;
y1_step1.gain = [0.220818796095924;0.178851631325753];
y1_step1.xoffset = [0.0999999999999996;0.31416652584394];

% ===== SIMULATION ========

% Format Input Arguments
isCellX = iscell(X);
if ~isCellX
  X = {X};
end

% Dimensions
TS = size(X,2); % timesteps
if ~isempty(X)
  Q = size(X{1},2); % samples/series
else
  Q = 0;
end

% Allocate Outputs
Y = cell(1,TS);

% Time loop
for ts=1:TS

    % Input 1
    Xp1 = mapminmax_apply(X{1,ts},x1_step1);
    
    % Layer 1
    a1 = tansig_apply(repmat(b1,1,Q) + IW1_1*Xp1);
    
    % Layer 2
    a2 = tansig_apply(repmat(b2,1,Q) + LW2_1*a1);
    
    % Layer 3
    a3 = tansig_apply(repmat(b3,1,Q) + LW3_2*a2);
    
    % Layer 4
    a4 = repmat(b4,1,Q) + LW4_3*a3;
    
    % Output 1
    Y{1,ts} = mapminmax_reverse(a4,y1_step1);
end

% Final Delay States
Xf = cell(1,0);
Af = cell(4,0);

% Format Output Arguments
if ~isCellX
  Y = cell2mat(Y);
end
end

% ===== MODULE FUNCTIONS ========

% Map Minimum and Maximum Input Processing Function
function y = mapminmax_apply(x,settings)
  y = bsxfun(@minus,x,settings.xoffset);
  y = bsxfun(@times,y,settings.gain);
  y = bsxfun(@plus,y,settings.ymin);
end

% Sigmoid Symmetric Transfer Function
function a = tansig_apply(n,~)
  a = 2 ./ (1 + exp(-2*n)) - 1;
end

% Map Minimum and Maximum Output Reverse-Processing Function
function x = mapminmax_reverse(y,settings)
  x = bsxfun(@minus,y,settings.ymin);
  x = bsxfun(@rdivide,x,settings.gain);
  x = bsxfun(@plus,x,settings.xoffset);
end
